#include <eml_net.h>
static const float IoTmodel_layer_0_biases[30] = { 0.097425f, -0.053913f, -0.332812f, 0.015422f, 0.095933f, -0.149581f, -0.106994f, -0.373346f, 0.025626f, -0.353610f, -0.157041f, 0.055690f, -0.270050f, -0.275075f, 0.146019f, -0.110583f, -0.292277f, 0.039421f, -0.092257f, -0.246233f, -0.154635f, -0.061702f, -0.084369f, 0.265071f, 0.152085f, -0.057266f, 0.004206f, 0.421016f, -0.210438f, -0.085965f };
static const float IoTmodel_layer_0_weights[90] = { -0.405230f, 0.203150f, -0.143518f, -0.131748f, 0.006692f, -0.017953f, -0.258307f, -0.195956f, 0.374097f, -0.283022f, 0.062042f, 0.270887f, -0.158090f, -0.393405f, 0.402841f, -0.013948f, 0.080462f, 0.037362f, 0.074792f, -0.321880f, 0.154211f, -0.089132f, 0.012020f, -0.009486f, 0.255201f, 0.134020f, -0.096902f, 0.112084f, 0.131440f, -0.016871f, -0.174236f, 0.428707f, 0.173875f, -0.607024f, -0.587135f, 0.327275f, 0.065260f, -0.143161f, -0.117896f, 0.015150f, -0.160815f, -0.303711f, -0.046392f, -0.149768f, -0.192147f, 0.286710f, 0.182706f, -0.404962f, -0.621257f, -0.207209f, 0.380473f, 0.474763f, 0.382751f, -0.263235f, -0.169204f, 0.183265f, -0.442167f, -0.208335f, -0.217206f, -0.113240f, -0.149180f, -0.155809f, -0.206622f, 0.017507f, -0.422912f, 0.004314f, -0.206459f, 0.180793f, 0.103320f, -0.073827f, 0.134745f, 0.207025f, 0.035343f, 0.112452f, 0.226460f, 0.268767f, -0.158004f, 0.289446f, 0.063937f, 0.148693f, 0.272451f, -0.374469f, 0.219834f, 0.047355f, -0.270168f, -0.170760f, 0.163251f, 0.092216f, 0.085270f, 0.046731f };
static const float IoTmodel_layer_1_biases[30] = { 0.009854f, 0.038125f, -0.054699f, -0.121925f, -0.223267f, 0.032103f, -0.002761f, -0.042084f, 0.318674f, 0.101500f, -0.218267f, -0.050312f, -0.056638f, -0.014842f, -0.015786f, -0.111215f, -0.137442f, 0.036789f, 0.125619f, 0.200364f, -0.187298f, -0.020082f, 0.132782f, -0.059005f, -0.130199f, -0.065491f, 0.002181f, 0.064590f, -0.111800f, -0.062146f };
static const float IoTmodel_layer_1_weights[900] = { -0.258969f, -0.338807f, -0.256854f, -0.323407f, -0.202547f, -0.048867f, -0.042069f, -0.429008f, 0.341918f, -0.506525f, 0.013132f, 0.063983f, 0.041790f, -0.485746f, -0.280342f, -0.427810f, -0.451624f, -0.757836f, 0.297924f, 0.139347f, -0.123861f, 0.114397f, 0.186347f, -0.199146f, -1.069427f, 0.040832f, -0.072475f, 0.263465f, 0.235259f, -0.224752f, 0.053072f, 0.314684f, 0.027628f, -0.120264f, 0.177765f, 0.023678f, -0.170191f, 0.283233f, -0.195943f, 0.097004f, 0.227803f, 0.226818f, 0.142251f, -0.154191f, 0.196566f, -0.053243f, -0.116342f, 0.267467f, -0.287813f, -0.089454f, -0.164002f, -0.243536f, 0.015522f, -0.240638f, 0.158592f, 0.116165f, -0.239268f, -0.163686f, -0.419313f, -0.133373f, 0.073723f, -0.108567f, -0.277925f, 0.286049f, -0.420847f, 0.228089f, -0.131831f, 0.268028f, 0.266290f, -0.208955f, 0.092104f, 0.148217f, -0.252066f, 0.003509f, 0.010593f, 0.212256f, 0.046656f, -0.124772f, -0.084962f, 0.030176f, 0.063237f, 0.262636f, 0.154775f, -0.246365f, -0.051861f, -0.059740f, 0.163698f, -0.255672f, 0.060165f, -0.017637f, 0.215962f, 0.235416f, -0.120934f, -0.076969f, -0.194995f, 0.035281f, 0.395649f, -0.327596f, 0.095306f, 0.175926f, 0.281267f, -0.328778f, -0.373295f, 0.406540f, -0.098928f, -0.065416f, -0.237065f, -0.241883f, 0.377889f, -0.495059f, -0.111023f, 0.025282f, 0.539169f, -0.337028f, 0.288762f, -0.111712f, 0.044969f, 0.115987f, -0.098666f, 0.304590f, 0.127725f, -0.469234f, 0.017183f, 0.069627f, -0.300318f, 0.181141f, 0.482351f, 0.277441f, 0.151159f, -0.063942f, 0.234401f, -0.069373f, -0.186787f, 0.259643f, 0.058901f, 0.086768f, -0.030794f, -0.619506f, 0.149164f, -0.213703f, -0.234831f, -0.014481f, 0.366269f, -0.478579f, -0.611443f, -0.284960f, -0.051044f, 0.060829f, 0.128987f, 0.202533f, -0.208553f, -0.086180f, 0.100491f, 0.122314f, -0.224431f, 0.277437f, -0.389519f, -0.262611f, -0.227587f, 0.037294f, -0.282803f, -0.194289f, -0.072473f, 0.146353f, -0.007020f, -0.001082f, 0.253519f, 0.116938f, -0.326926f, 0.011487f, 0.098336f, 0.254881f, 0.091892f, -0.358051f, 0.193501f, -0.297008f, 0.125758f, -0.414846f, -0.233194f, -0.120623f, -0.319837f, -0.134547f, -0.012438f, -0.342514f, -0.395730f, 0.235204f, 0.259229f, -0.308675f, -0.128630f, -0.041359f, -0.204547f, -0.245866f, -0.145219f, 0.231155f, -0.358825f, -0.154741f, 0.100251f, -0.395280f, -0.060971f, 0.106104f, -0.069061f, 0.031769f, 0.171775f, -0.083579f, 0.219460f, -0.136626f, 0.042491f, 0.019925f, 0.128264f, -0.585622f, 0.031291f, 0.079078f, -0.260229f, -0.114737f, 0.076451f, 0.047814f, -0.143271f, 0.195877f, 0.054653f, -0.009811f, 0.032168f, -0.137399f, 0.116136f, -0.171472f, 0.163211f, 0.017009f, -0.279385f, -0.214334f, -0.080585f, 0.003031f, 0.150919f, -0.201612f, -0.293165f, -0.209803f, -0.088016f, -0.139490f, 0.222278f, 0.241859f, 0.132088f, 0.160742f, -0.400817f, 0.182900f, -0.057137f, 0.354479f, 0.218819f, -0.326708f, -0.161099f, -0.525566f, 0.232747f, 0.166175f, -0.194610f, -0.233898f, 0.021740f, -0.036764f, 0.007716f, -0.154308f, 0.153495f, -0.312380f, -0.086357f, 0.097553f, 0.140988f, -0.156051f, 0.279791f, -0.162187f, 0.070861f, -0.040775f, -0.185602f, 0.240129f, 0.020434f, -0.110323f, 0.046087f, -0.238111f, -0.295133f, -0.478362f, -0.210761f, -0.096120f, 0.167871f, -0.025111f, 0.079214f, 0.156240f, 0.013845f, -0.172431f, -0.035049f, 0.159420f, -0.089977f, -0.265734f, -0.135475f, -0.288901f, 0.204842f, -0.064701f, -0.195138f, 0.049403f, -0.020794f, 0.295047f, -0.028868f, 0.076472f, 0.149042f, -0.384134f, 0.168683f, -0.108868f, 0.053573f, 0.060171f, -0.091721f, -0.213496f, -0.144605f, 0.131636f, -0.064767f, 0.036550f, 0.051842f, -0.086528f, -0.009451f, -0.355748f, 0.113471f, -0.181539f, 0.080741f, 0.230902f, -0.177199f, 0.011858f, -0.231615f, -0.342156f, 0.213452f, -0.020935f, -0.085351f, -0.120005f, 0.120752f, 0.309292f, 0.195585f, 0.144378f, -0.083241f, 0.420884f, -0.083435f, 0.344469f, 0.077522f, 0.227369f, 0.320718f, -0.185264f, 0.134884f, -0.066247f, 0.004894f, 0.324335f, 0.097957f, -0.125549f, -0.034442f, 0.046448f, -0.210270f, 0.254266f, -0.260032f, 0.179980f, 0.259759f, 0.162213f, -0.030509f, -0.036360f, 0.253814f, -0.370773f, 0.115632f, 0.237325f, 0.185274f, -0.192031f, 0.020809f, -0.172486f, 0.105021f, -0.142307f, 0.007455f, -0.123551f, 0.202579f, 0.093392f, -0.129718f, 0.379538f, 0.177087f, -0.058018f, 0.134289f, 0.169605f, -0.249964f, -0.298932f, 0.399983f, 0.216254f, -0.132149f, -0.242458f, 0.160932f, 0.395463f, -0.374856f, 0.198801f, -0.037702f, 0.017121f, -0.185229f, -0.028042f, 0.186859f, -0.126239f, -0.065620f, -0.111755f, 0.094191f, -0.156632f, 0.066380f, -0.116123f, -0.091676f, -0.197873f, 0.003555f, -0.350250f, 0.532128f, -0.359207f, 0.234477f, -0.355350f, 0.095851f, -0.128644f, -0.258333f, -0.050770f, -0.058777f, -0.507515f, -0.262693f, 0.234625f, 0.073829f, -0.317864f, -0.252092f, -0.036792f, -0.305511f, -0.278243f, 0.303718f, -0.145975f, -0.048778f, 0.029559f, -0.068383f, -0.146899f, -0.107747f, 0.179453f, -0.069439f, 0.043343f, -0.113542f, -0.503568f, 0.122087f, -0.183505f, 0.126205f, 0.137661f, -0.202460f, -0.017992f, -0.361719f, -0.256252f, 0.053387f, -0.300233f, -0.096565f, -0.031965f, -0.355095f, -0.083123f, -0.050937f, -0.268350f, 0.035783f, 0.235576f, -0.566708f, 0.146632f, -0.028475f, -0.250769f, 0.099302f, 0.239794f, -0.274546f, -0.041758f, 0.157419f, 0.271961f, -0.239274f, -0.178632f, -0.035501f, 0.232919f, 0.065236f, -0.173134f, 0.075964f, 0.240814f, -0.039343f, -0.097245f, 0.116025f, 0.117202f, -0.180555f, -0.154154f, 0.213087f, -0.331777f, -0.111311f, 0.091908f, -0.196649f, -0.342908f, 0.240502f, -0.226394f, -0.163031f, -0.568882f, -0.309840f, -0.116470f, 0.212796f, 0.423827f, -0.033099f, 0.262789f, 0.234073f, -0.069134f, 0.116683f, -0.165403f, 0.250474f, 0.141054f, -0.305790f, 0.014879f, 0.301051f, 0.429262f, 0.092415f, -0.050845f, -0.130637f, -0.146983f, -0.077414f, -0.302902f, -0.084476f, 0.110807f, 0.079475f, -0.206014f, 0.157362f, 0.476077f, 0.155291f, 0.420559f, 0.180448f, -0.085666f, -0.091108f, -0.192527f, -0.045824f, -0.209767f, 0.215422f, 0.081670f, 0.178392f, -0.132916f, 0.096555f, -0.057179f, -0.067710f, -0.391963f, -0.017103f, -0.201270f, 0.251495f, -0.212018f, 0.310900f, -0.334175f, -0.168569f, 0.037067f, 0.191479f, -0.004633f, 0.254352f, 0.103421f, -0.110817f, 0.117799f, 0.151970f, 0.168219f, 0.251704f, 0.615361f, 0.205291f, -0.505555f, -0.265332f, 0.257489f, 0.192066f, 0.127045f, 0.264546f, -0.087150f, 0.468566f, 0.172408f, -0.233274f, -0.315213f, -0.310009f, 0.182656f, -0.266925f, 0.265534f, 0.286065f, -0.095000f, 0.241538f, 0.020848f, 0.643327f, -0.080533f, 0.248958f, -0.187182f, 0.079436f, 0.479410f, 0.086292f, 0.317168f, 0.226528f, -0.058671f, -0.068124f, -0.284479f, 0.043043f, -0.172237f, 0.133984f, 0.094144f, 0.148999f, -0.027271f, -0.250547f, 0.106598f, 0.075853f, -0.123366f, -0.063214f, -0.132543f, -0.388097f, -0.328243f, -0.194095f, -0.189576f, -0.387614f, -0.263925f, -0.112969f, -0.242933f, -0.382055f, -0.017734f, -0.092243f, 0.042822f, 0.123230f, 0.188099f, 0.057150f, 0.029118f, -0.271985f, 0.222590f, 0.007500f, 0.229378f, 0.104995f, 0.154723f, -0.226142f, 0.195280f, -0.447605f, 0.007349f, -0.191748f, -0.303683f, 0.075685f, 0.326632f, -0.173663f, 0.170419f, 0.075991f, -0.164274f, -0.203083f, 0.101018f, -0.241303f, -0.164402f, -0.171460f, 0.046194f, -0.254722f, -0.156821f, -0.082235f, -0.091518f, -0.426953f, 0.272804f, -0.004670f, 0.095250f, -0.223896f, 0.218813f, -0.090527f, 0.244547f, 0.019286f, -0.106854f, -0.108146f, -0.027982f, -0.346319f, -0.238532f, -0.096196f, -0.075040f, 0.331244f, 0.207121f, -0.434047f, 0.248135f, 0.223008f, -0.281683f, 0.050283f, 0.164615f, -0.379701f, 0.105791f, 0.135507f, 0.190615f, -0.153730f, -0.046610f, -0.161263f, 0.064629f, 0.018225f, 0.244713f, -0.001261f, 0.043861f, -0.202526f, 0.260365f, 0.192862f, -0.182568f, -0.427836f, 0.061447f, -0.068120f, -0.033590f, 0.166897f, 0.110116f, -0.256223f, 0.325135f, -0.029412f, 0.167130f, -0.151413f, -0.155114f, -0.346178f, 0.193313f, -0.331322f, -0.273476f, -0.070259f, -0.306988f, -0.057517f, -0.147305f, 0.239670f, -0.465847f, 0.061046f, -0.185310f, -0.435450f, 0.140553f, 0.311945f, -0.280862f, 0.202019f, -0.188565f, -0.048932f, -0.056332f, -0.093721f, -0.369504f, -0.116012f, -0.295992f, -0.715154f, 0.023627f, 0.370863f, 0.146912f, 0.144078f, -0.136857f, 0.137741f, -0.330174f, -0.208214f, -0.280008f, -0.312529f, 0.592142f, -0.392100f, 0.082320f, 0.061223f, -0.478388f, 0.133296f, -0.125727f, -0.124801f, -0.045797f, -0.087069f, -0.171909f, 0.200699f, -0.304634f, 0.124229f, -0.017928f, 0.188484f, -0.201856f, -0.140136f, 0.007451f, 0.029205f, 0.164635f, 0.203600f, -0.203728f, -0.150527f, -0.296679f, -0.053410f, 0.082662f, -0.485975f, 0.073036f, 0.045376f, 0.321292f, -0.286324f, 0.256713f, 0.197117f, 0.261279f, -0.211902f, -0.147407f, 0.228351f, -0.069810f, -0.101686f, -0.111460f, 0.240783f, 0.232926f, -0.161336f, -0.239111f, -0.074538f, 0.278983f, 0.221558f, 0.287232f, 0.264095f, 0.028442f, -0.062585f, 0.058782f, 0.188576f, 0.250091f, 0.051801f, 0.192560f, -0.034792f, -0.428052f, 0.056218f, -0.036259f, -0.285385f, 0.312469f, -0.212289f, 0.438244f, 0.034746f, 0.042279f, -0.151771f, -0.041137f, 0.117466f, 0.002896f, -0.219240f, 0.089662f, 0.379082f, 0.179306f, -0.180965f, -0.153611f, -0.051661f, -0.027105f, 0.200547f, 0.166281f, 0.124452f, -0.308040f, 0.169994f, -0.080348f, 0.205768f, 0.090869f, 0.281669f, 0.079928f, 0.059213f, 0.331563f, -0.225021f, -0.167514f, 0.183197f, -0.386641f, -0.345980f, -0.417659f, 0.171579f, -0.550791f, 0.334644f, -0.372844f, -0.159848f, -0.076138f, -0.062038f, -0.333171f, 0.070345f, -0.106537f, -0.697490f, -0.449944f, -0.335164f, -0.453464f, 0.347354f, 0.199841f, -0.141156f, -0.287750f, 0.137868f, 0.101960f, -0.001411f, 0.036352f, -0.480849f, -0.034970f, -0.227930f, -0.016063f, -0.099584f, 0.311342f, 0.074446f, 0.006227f, -0.079556f, -0.151231f, -0.179984f, -0.198585f, 0.191912f, 0.081270f, 0.142552f, 0.220667f, 0.094075f, -0.106535f, 0.027587f, -0.084911f, -0.363186f, 0.259903f, 0.137500f, -0.390846f, -0.191644f, 0.171489f, -0.054688f, 0.018094f, 0.687223f, -0.125554f, -0.356056f, 0.000988f, 0.158318f, 0.350648f, -0.031293f, 0.239125f, 0.129868f, -0.002099f, -0.032313f, -0.061954f, 0.170658f, -0.059176f, 0.149185f, -0.124519f, 0.349116f, 0.292807f, -0.222040f, 0.197043f, -0.286011f, -0.067018f, -0.336987f, 0.169468f, 0.008268f, -0.002467f, -0.261473f, 0.214206f, -0.256359f, -0.106118f, 0.036887f, 0.177705f, 0.249411f, -0.243728f, -0.384014f, 0.342703f };
static const float IoTmodel_layer_2_biases[30] = { -0.009915f, -0.138715f, 0.125227f, -0.092891f, 0.019724f, -0.083960f, -0.141483f, 0.169136f, -0.067206f, -0.121807f, -0.167880f, 0.141747f, -0.036712f, -0.071631f, -0.072051f, -0.081349f, -0.199913f, -0.065964f, -0.176678f, -0.194991f, -0.074667f, 0.063081f, -0.051694f, 0.163856f, -0.045889f, -0.138283f, -0.046004f, -0.090940f, 0.210268f, -0.086254f };
static const float IoTmodel_layer_2_weights[900] = { 0.051309f, 0.046713f, -0.094526f, -0.032752f, 0.085235f, -0.368570f, 0.241713f, -0.036235f, 0.084310f, 0.178021f, -0.029642f, 0.016609f, 0.362351f, -0.189221f, -0.232323f, -0.165744f, -0.240622f, 0.178093f, 0.028908f, 0.144982f, 0.031186f, -0.202455f, 0.223475f, 0.064842f, 0.018103f, 0.187964f, -0.312296f, -0.194012f, -0.132500f, -0.157483f, -0.253435f, 0.022310f, 0.187914f, 0.080497f, -0.314010f, -0.315274f, -0.318319f, -0.106561f, -0.223327f, -0.206419f, -0.091089f, 0.306809f, -0.243528f, 0.111265f, -0.239971f, -0.027760f, 0.217689f, -0.315719f, 0.165131f, 0.298796f, 0.220561f, -0.024159f, -0.308616f, 0.104223f, -0.079411f, 0.117560f, -0.281283f, 0.087293f, 0.210434f, -0.136376f, 0.070091f, 0.048621f, 0.103513f, -0.100693f, 0.262364f, 0.128031f, 0.108922f, -0.014366f, 0.234275f, -0.289332f, 0.024976f, 0.225365f, -0.080533f, 0.167797f, -0.148710f, -0.025635f, -0.167560f, 0.110258f, 0.271065f, 0.095191f, 0.186278f, -0.137976f, -0.064817f, -0.099177f, 0.153129f, 0.307722f, 0.085987f, -0.262322f, 0.095068f, -0.100852f, -0.255571f, -0.338994f, -0.068427f, 0.023407f, -0.349306f, -0.325579f, -0.274017f, -0.230556f, 0.084835f, 0.150824f, -0.148504f, 0.214187f, 0.060050f, -0.203047f, 0.063519f, -0.276035f, -0.101461f, -0.093682f, 0.031035f, 0.392527f, -0.352380f, 0.182616f, -0.104956f, 0.040968f, -0.102213f, -0.163002f, 0.225884f, -0.188662f, -0.256656f, -0.190321f, -0.199741f, 0.241967f, 0.030643f, -0.131654f, -0.001839f, -0.152721f, -0.154724f, 0.095478f, -0.379576f, 0.151494f, 0.023130f, 0.160316f, 0.084882f, -0.241752f, 0.229671f, 0.036782f, -0.341299f, 0.449261f, 0.071298f, -0.154829f, -0.103042f, 0.355258f, -0.317026f, -0.005436f, -0.079044f, -0.006406f, 0.122487f, -0.260565f, -0.368511f, 0.289194f, 0.248416f, 0.222207f, 0.313963f, -0.300618f, -0.333538f, 0.057082f, 0.200107f, -0.259995f, 0.086529f, -0.256811f, -0.306908f, 0.065971f, 0.168950f, -0.018856f, 0.265220f, -0.200357f, -0.134992f, 0.038395f, -0.130615f, -0.208616f, -0.345027f, 0.295348f, 0.011911f, -0.059468f, -0.402617f, -0.168305f, -0.336581f, -0.254567f, -0.051668f, 0.015148f, 0.054898f, 0.126086f, -0.174861f, -0.435292f, 0.254581f, -0.069848f, -0.082752f, 0.025195f, 0.278961f, -0.288663f, -0.299784f, -0.200724f, -0.207562f, 0.218032f, 0.259799f, 0.009590f, -0.095993f, -0.245303f, -0.189790f, 0.085185f, -0.119431f, 0.058398f, -0.098881f, -0.109028f, 0.212238f, -0.167763f, 0.210021f, -0.023920f, -0.024135f, 0.217811f, -0.087182f, 0.015649f, 0.160422f, -0.018088f, -0.141279f, -0.311071f, -0.250143f, -0.154627f, -0.509922f, 0.159196f, -0.180292f, -0.128363f, 0.178035f, -0.083413f, 0.091864f, 0.013566f, 0.000840f, -0.169067f, 0.015998f, -0.306042f, 0.144724f, 0.050647f, -0.208291f, 0.204008f, 0.026562f, -0.134977f, 0.297628f, -0.046974f, -0.159083f, -0.078340f, -0.262827f, -0.512220f, -0.036170f, -0.173688f, 0.073027f, -0.372832f, -0.135386f, -0.182877f, -0.089192f, -0.179758f, 0.127693f, -0.351489f, -0.073282f, 0.058340f, -0.364835f, 0.134104f, 0.037202f, -0.287185f, -0.341115f, -0.122042f, -0.105161f, -0.292268f, -0.082596f, 0.027862f, 0.213780f, -0.266757f, -0.106213f, 0.056468f, -0.015705f, -0.025566f, -0.148250f, -0.349638f, 0.228951f, 0.103855f, -0.156427f, 0.122096f, -0.296288f, 0.140153f, -0.320947f, 0.180885f, 0.042373f, 0.038585f, -0.196651f, -0.062969f, -0.213945f, -0.360445f, 0.088275f, 0.039085f, -0.113169f, 0.270346f, -0.394235f, 0.091739f, -0.138990f, 0.168734f, 0.083714f, -0.008524f, -0.336625f, -0.037086f, 0.174972f, -0.285247f, -0.200407f, 0.045026f, -0.088727f, -0.183673f, 0.202015f, -0.123046f, 0.218702f, -0.331421f, 0.049162f, -0.198907f, 0.036992f, 0.008145f, 0.200340f, -0.254410f, 0.110510f, 0.001156f, 0.109534f, -0.115780f, 0.086067f, -0.234409f, 0.085549f, 0.241754f, 0.211144f, -0.357147f, -0.244704f, 0.281525f, 0.104572f, -0.152925f, -0.279123f, -0.182635f, 0.154993f, -0.158785f, 0.091512f, 0.121483f, -0.137701f, 0.010805f, -0.034636f, 0.131533f, 0.139059f, -0.227295f, 0.286389f, 0.113436f, -0.120652f, 0.067961f, 0.071648f, 0.191394f, 0.145451f, 0.071902f, -0.232391f, -0.098668f, -0.065840f, -0.120054f, -0.203157f, -0.164408f, -0.170495f, -0.160342f, 0.178383f, -0.080914f, 0.141839f, -0.131488f, -0.196660f, -0.144482f, -0.272077f, -0.134457f, -0.119371f, 0.111171f, -0.290082f, -0.081725f, -0.068654f, -0.198148f, -0.190402f, 0.181693f, -0.223962f, -0.207803f, 0.183471f, -0.076228f, 0.047750f, 0.147938f, -0.030673f, 0.129056f, -0.130292f, 0.165959f, 0.106443f, 0.011487f, -0.067159f, -0.245542f, -0.153919f, 0.032638f, 0.008018f, 0.068178f, 0.128499f, -0.277394f, 0.106004f, 0.071727f, 0.109386f, -0.330104f, -0.301603f, 0.200187f, -0.154020f, -0.090032f, -0.124383f, -0.011854f, -0.190949f, 0.061353f, -0.241143f, -0.119487f, -0.376925f, 0.064807f, -0.213336f, 0.040142f, 0.063783f, 0.173232f, 0.138094f, -0.117127f, 0.080564f, 0.027304f, -0.221261f, -0.076979f, 0.000352f, -0.268053f, -0.237584f, 0.091789f, 0.085642f, 0.071551f, 0.262731f, -0.183284f, -0.006906f, 0.024366f, 0.263259f, -0.028717f, 0.020468f, 0.267400f, 0.163280f, -0.005914f, -0.217048f, -0.153797f, -0.087788f, -0.260498f, 0.050539f, -0.105706f, 0.052664f, 0.149503f, -0.246512f, -0.255203f, -0.106807f, -0.207175f, 0.084786f, 0.098913f, -0.036344f, 0.017435f, 0.146288f, -0.125891f, -0.101214f, -0.259247f, 0.003130f, 0.171217f, 0.218819f, -0.282783f, -0.454206f, -0.307142f, -0.271713f, 0.240285f, -0.363089f, -0.219637f, -0.029747f, -0.430770f, -0.043067f, -0.372618f, -0.187170f, -0.101991f, -0.014382f, -0.262521f, -0.236680f, 0.094487f, -0.008573f, -0.236556f, -0.285193f, 0.055264f, -0.194763f, -0.274125f, -0.085297f, -0.128484f, 0.032565f, 0.158085f, -0.131788f, -0.032809f, 0.266674f, 0.056539f, 0.545284f, -0.025542f, -0.056732f, 0.187107f, -0.490303f, -0.268102f, -0.179407f, 0.116443f, -0.129163f, -0.171700f, -0.160346f, 0.048726f, -0.247822f, -0.107524f, -0.205910f, -0.043267f, -0.089945f, 0.014495f, -0.100450f, -0.263901f, -0.100304f, 0.277907f, 0.074522f, -0.040693f, 0.238646f, -0.049867f, -0.268374f, -0.250328f, 0.045131f, 0.188047f, 0.205937f, -0.057436f, 0.269573f, 0.194549f, -0.229167f, -0.080318f, -0.252295f, 0.199500f, -0.249795f, 0.254852f, -0.125026f, -0.090581f, 0.145204f, 0.158040f, -0.145269f, 0.199346f, -0.028245f, 0.189567f, 0.271308f, 0.226298f, -0.308986f, 0.150439f, 0.019646f, -0.138855f, -0.288054f, 0.142155f, 0.172438f, 0.161427f, 0.182337f, -0.198414f, 0.262297f, -0.326070f, 0.067914f, -0.374541f, 0.057816f, -0.252051f, 0.214594f, -0.191833f, 0.042268f, 0.056617f, -0.055454f, 0.239543f, 0.087718f, -0.374964f, -0.123727f, 0.082952f, 0.307476f, 0.118552f, 0.032593f, -0.130420f, 0.017433f, -0.173819f, -0.255208f, 0.030859f, 0.063478f, -0.302283f, -0.227193f, 0.218473f, -0.184901f, 0.123707f, -0.078137f, -0.301357f, -0.119960f, -0.084136f, -0.422235f, -0.067290f, -0.261277f, -0.416548f, -0.153951f, -0.118365f, -0.029458f, 0.151783f, 0.137184f, 0.073509f, -0.220466f, 0.200191f, -0.295193f, -0.154539f, 0.060720f, -0.405771f, 0.352496f, -0.224800f, 0.003395f, -0.186785f, -0.166285f, -0.095941f, -0.325437f, -0.064748f, -0.097070f, -0.139042f, -0.211557f, 0.093198f, 0.151141f, 0.026672f, 0.213045f, 0.048640f, 0.109656f, -0.087263f, 0.246876f, -0.334573f, -0.314975f, 0.187183f, 0.116036f, 0.253897f, -0.073691f, 0.054292f, -0.062667f, 0.132775f, 0.043031f, -0.183643f, -0.246161f, 0.189670f, -0.216056f, 0.130313f, -0.271342f, -0.155071f, 0.146709f, -0.143822f, -0.025864f, 0.229112f, 0.113504f, -0.160892f, -0.237746f, -0.097725f, -0.034701f, -0.012658f, -0.101937f, -0.137518f, 0.157679f, -0.132422f, -0.310048f, -0.071670f, -0.124335f, 0.067295f, 0.282549f, -0.231593f, 0.187656f, -0.096767f, -0.094448f, -0.259428f, -0.064954f, -0.166926f, -0.323619f, -0.141420f, -0.332642f, 0.106904f, 0.292251f, 0.008299f, -0.230438f, 0.239068f, 0.351026f, -0.288675f, 0.050702f, -0.347879f, -0.102028f, -0.081061f, -0.303230f, -0.264062f, -0.207116f, -0.031529f, -0.009716f, -0.566951f, -0.129751f, -0.032748f, 0.223769f, -0.101160f, 0.212893f, -0.071982f, -0.019838f, -0.258482f, -0.070204f, 0.013610f, 0.129015f, 0.128823f, 0.313966f, 0.125203f, -0.081956f, -0.017849f, 0.209485f, 0.103156f, 0.105738f, 0.150380f, -0.121925f, -0.231984f, 0.002105f, -0.191045f, 0.148845f, -0.045058f, 0.069765f, -0.080401f, -0.142272f, -0.202076f, 0.179217f, 0.001314f, -0.034670f, 0.148358f, -0.237669f, 0.020218f, -0.149441f, 0.059707f, -0.101459f, -0.100418f, -0.198410f, 0.338851f, 0.046842f, 0.319883f, -0.450268f, -0.314561f, -0.162765f, 0.278608f, -0.052348f, 0.103528f, 0.205020f, 0.215040f, 0.010365f, 0.187963f, 0.180030f, 0.224014f, 0.197044f, -0.068983f, 0.141155f, -0.026311f, 0.263084f, 0.200111f, -0.441126f, -0.227723f, -0.276339f, -0.006220f, -0.130344f, -0.248744f, 0.349317f, -0.291883f, -0.261981f, 0.034062f, 0.098126f, 0.129083f, 0.079186f, -0.264963f, 0.057217f, 0.176014f, -0.338021f, 0.130812f, 0.074331f, 0.090863f, -0.290030f, -0.238494f, -0.311864f, -0.165220f, -0.237386f, 0.122150f, -0.161619f, 0.058250f, -0.201937f, -0.196530f, 0.134867f, 0.093452f, -0.013165f, -0.306831f, 0.132049f, 0.272954f, -0.001038f, -0.107576f, -0.114303f, -0.034782f, 0.166232f, -0.273536f, 0.022008f, -0.207009f, 0.021764f, -0.201058f, -0.115389f, -0.061983f, -0.188846f, -0.561347f, -0.131298f, -0.331884f, -0.006568f, -0.203942f, -0.319091f, -0.031912f, 0.141245f, -0.101299f, -0.145728f, -0.021935f, 0.129569f, 0.013786f, -0.158079f, 0.225594f, -0.110352f, -0.044078f, 0.262492f, 0.197562f, -0.105532f, -0.297338f, -0.136826f, 0.108056f, 0.191991f, 0.197103f, -0.134498f, -0.168835f, 0.054206f, -0.188931f, -0.335979f, -0.412182f, -0.198335f, -0.315541f, 0.198042f, -0.083556f, 0.066004f, -0.209801f, 0.193210f, -0.219288f, -0.452482f, -0.279037f, 0.163661f, -0.019014f, 0.271935f, 0.186555f, -0.375899f, -0.143709f, 0.141282f, -0.134562f, 0.259027f, 0.067052f, -0.116480f, 0.075842f, -0.209299f, -0.114345f, 0.190350f, 0.248270f, 0.028886f, -0.020402f, 0.139916f, 0.243205f, 0.184819f, -0.077535f, -0.281622f, -0.272802f, -0.103162f, -0.008229f, -0.159963f, -0.129496f, -0.257072f, 0.096966f, 0.231798f, 0.123862f, -0.188879f, 0.074918f, -0.226712f, -0.065104f, -0.107661f, -0.308047f, 0.177812f, -0.110019f, 0.017235f, 0.246774f, 0.075851f, -0.002645f, -0.194515f, 0.049185f, 0.301609f, -0.119070f, -0.012363f, 0.086272f, 0.148292f, 0.205238f, -0.021643f, -0.043356f, 0.134187f, -0.267466f, -0.352341f, 0.117336f, 0.134589f, -0.143709f, -0.130002f, -0.040440f, 0.097247f, 0.212902f, -0.265132f, 0.095116f, 0.045078f, -0.137608f };
static const float IoTmodel_layer_3_biases[30] = { 0.184564f, 0.172984f, -0.113149f, 0.203982f, -0.139672f, 0.254416f, -0.035903f, 0.186628f, -0.031777f, -0.029690f, 0.298077f, 0.216374f, 0.254481f, 0.271052f, -0.082806f, 0.230709f, -0.039993f, -0.142235f, -0.016696f, 0.211915f, 0.140369f, 0.286331f, 0.018670f, 0.166833f, -0.053620f, 0.185933f, 0.168474f, -0.095793f, 0.178183f, 0.035487f };
static const float IoTmodel_layer_3_weights[900] = { 0.129736f, 0.009735f, -0.207473f, -0.047034f, -0.165017f, -0.210334f, 0.077219f, -0.137412f, -0.096313f, -0.261804f, -0.202474f, -0.330726f, -0.055377f, 0.072278f, -0.341223f, 0.038457f, 0.139270f, 0.151341f, 0.125656f, 0.079787f, 0.168956f, 0.058069f, 0.147549f, 0.160904f, 0.035430f, 0.070342f, 0.020574f, 0.024345f, 0.126624f, -0.198078f, 0.090275f, -0.086595f, -0.053565f, 0.251978f, -0.039050f, -0.182599f, 0.042612f, 0.180667f, 0.018632f, 0.037414f, -0.112221f, 0.008189f, 0.209145f, 0.110117f, 0.264690f, 0.082047f, -0.162812f, -0.070333f, 0.265768f, -0.051737f, -0.293555f, -0.138361f, 0.244288f, -0.254088f, -0.271759f, 0.074191f, -0.093682f, -0.135778f, -0.164714f, 0.114393f, 0.307919f, 0.324676f, -0.195126f, 0.405147f, 0.197735f, 0.057677f, -0.146771f, 0.087950f, 0.065631f, 0.052406f, 0.133665f, -0.069171f, 0.314238f, 0.343111f, -0.020571f, 0.175382f, -0.102610f, -0.248613f, -0.246639f, -0.077686f, 0.355302f, -0.058657f, -0.182561f, 0.243047f, -0.358368f, 0.032564f, 0.105481f, 0.255194f, 0.093027f, 0.057654f, -0.076357f, -0.074704f, 0.109959f, -0.221715f, 0.172159f, 0.201272f, 0.134704f, 0.179223f, -0.121268f, 0.293963f, 0.170031f, -0.141538f, -0.072428f, -0.031893f, -0.264246f, -0.217225f, -0.293145f, 0.065460f, -0.071379f, 0.064603f, -0.169341f, 0.211903f, 0.254676f, -0.035170f, -0.013581f, -0.006032f, -0.177619f, 0.096223f, 0.122400f, 0.001673f, -0.292992f, -0.166588f, 0.166608f, -0.270573f, 0.272774f, -0.412849f, -0.046067f, 0.095561f, 0.179330f, -0.261957f, -0.308268f, -0.051305f, -0.139738f, -0.093126f, -0.203245f, -0.135651f, -0.308361f, 0.252289f, 0.248688f, -0.093473f, 0.074513f, -0.241611f, 0.030019f, -0.211723f, -0.015437f, -0.216518f, -0.345012f, -0.040610f, -0.039020f, 0.153986f, -0.227095f, 0.149788f, 0.270620f, 0.055100f, 0.109476f, 0.265252f, 0.096716f, 0.145269f, 0.042947f, 0.182868f, 0.226197f, -0.082862f, -0.323775f, -0.153245f, -0.312403f, 0.159686f, 0.105740f, 0.240657f, -0.137159f, -0.150991f, 0.309122f, 0.189468f, -0.159003f, -0.007879f, 0.220230f, -0.358556f, 0.089528f, -0.248682f, 0.211304f, 0.076523f, 0.061824f, -0.091231f, 0.149700f, 0.119827f, -0.175463f, -0.127581f, -0.098211f, -0.183390f, -0.066404f, 0.084921f, -0.121289f, -0.193837f, 0.044934f, -0.376945f, 0.138979f, -0.071925f, -0.002940f, -0.297547f, 0.166040f, 0.250497f, 0.199641f, -0.410192f, 0.130131f, 0.054813f, -0.000938f, -0.035788f, 0.042830f, 0.092966f, -0.184853f, 0.073775f, -0.016208f, -0.073574f, -0.030251f, -0.042660f, -0.362052f, -0.135939f, -0.364425f, 0.089810f, 0.065979f, -0.337177f, -0.090374f, -0.297395f, 0.183356f, -0.191872f, -0.198926f, 0.005436f, 0.131734f, -0.192716f, -0.105688f, 0.023658f, 0.064557f, 0.178912f, 0.092135f, -0.154984f, 0.010897f, -0.113076f, -0.214534f, -0.174273f, -0.006426f, -0.026303f, -0.000792f, -0.129888f, 0.061164f, -0.112267f, 0.341551f, -0.297777f, 0.230031f, -0.073011f, 0.089388f, 0.020736f, -0.367229f, -0.071178f, -0.345523f, -0.031413f, 0.139568f, -0.078999f, -0.036843f, 0.125037f, 0.126883f, -0.141273f, -0.339256f, -0.232211f, 0.100176f, -0.059048f, 0.248256f, -0.261374f, -0.105173f, 0.305063f, -0.117099f, 0.112885f, -0.076029f, 0.029991f, -0.249893f, -0.187625f, 0.203100f, -0.093243f, 0.153637f, -0.176758f, 0.063872f, 0.269846f, 0.017278f, -0.016692f, -0.133079f, 0.218195f, -0.198869f, 0.430785f, -0.003715f, -0.117710f, 0.135216f, 0.228710f, 0.070225f, 0.245659f, -0.145788f, 0.242574f, -0.143938f, -0.174116f, 0.006598f, -0.038605f, -0.160502f, -0.028815f, -0.362228f, 0.234616f, -0.259503f, -0.038369f, 0.089801f, 0.165117f, 0.189710f, 0.092119f, -0.118850f, 0.167215f, 0.047638f, -0.441585f, -0.180412f, 0.175288f, -0.217194f, 0.217064f, 0.151791f, -0.119323f, -0.006300f, -0.145152f, 0.086593f, 0.264274f, 0.044097f, -0.005937f, 0.151563f, 0.069183f, 0.120747f, -0.020572f, 0.134235f, 0.121531f, 0.103990f, 0.143945f, 0.197314f, 0.088880f, -0.106357f, 0.298182f, 0.132311f, -0.070634f, -0.065991f, -0.225385f, 0.209893f, 0.098095f, 0.070504f, 0.146070f, -0.066468f, 0.123794f, -0.228591f, -0.376712f, 0.206527f, 0.238488f, 0.033988f, 0.206565f, -0.342958f, 0.170624f, -0.191690f, 0.200851f, 0.243236f, -0.290382f, 0.186381f, -0.275640f, 0.253394f, 0.228560f, 0.091035f, 0.003162f, -0.050004f, -0.085340f, 0.051337f, 0.009840f, 0.326903f, -0.262614f, -0.028585f, 0.039852f, 0.430536f, -0.069007f, 0.259689f, -0.118072f, 0.112429f, -0.136275f, -0.208449f, 0.178398f, 0.519515f, 0.063525f, 0.088182f, -0.078351f, -0.175454f, 0.061205f, -0.002089f, -0.246833f, 0.189979f, -0.037563f, -0.030273f, 0.036065f, 0.112603f, -0.120689f, -0.107746f, -0.042729f, -0.108988f, -0.208489f, 0.019648f, 0.210739f, 0.078167f, 0.118596f, -0.271435f, -0.048331f, 0.262698f, 0.182445f, 0.195434f, 0.183497f, -0.279559f, -0.047535f, 0.112964f, -0.125760f, 0.252119f, -0.128911f, 0.117521f, 0.159084f, 0.248418f, -0.267804f, -0.077359f, 0.268745f, -0.149824f, 0.274651f, 0.071725f, 0.281557f, -0.137370f, 0.200298f, -0.234316f, -0.284288f, 0.087981f, 0.227391f, 0.239147f, -0.090189f, 0.141486f, 0.268118f, 0.085147f, 0.091356f, 0.204988f, 0.280061f, 0.041673f, -0.312373f, 0.007983f, -0.240692f, 0.166155f, 0.027662f, 0.145958f, -0.070820f, -0.277813f, 0.144301f, -0.117390f, -0.009241f, -0.103563f, 0.262257f, 0.113091f, -0.091297f, 0.105033f, -0.140597f, 0.043883f, -0.062451f, 0.143868f, 0.244732f, 0.178319f, 0.085708f, 0.172161f, -0.251602f, 0.239098f, 0.246224f, -0.007799f, -0.248051f, -0.136099f, 0.241041f, -0.296543f, -0.259615f, 0.238498f, 0.123805f, 0.060148f, 0.214351f, -0.210728f, -0.182599f, 0.186110f, 0.113830f, 0.210252f, 0.309285f, 0.195046f, -0.138184f, 0.011306f, -0.237788f, -0.086030f, 0.040593f, 0.077387f, -0.323802f, -0.306881f, 0.201825f, -0.247753f, -0.136369f, 0.024539f, 0.210287f, 0.192640f, 0.096307f, -0.109960f, 0.018000f, -0.310274f, 0.208533f, 0.043860f, 0.097074f, 0.198306f, -0.134705f, 0.168006f, 0.216054f, -0.055837f, -0.259934f, -0.080191f, -0.066671f, -0.237874f, 0.210341f, 0.049935f, 0.052663f, -0.106746f, 0.085250f, -0.265802f, 0.179458f, -0.011910f, -0.004914f, -0.206595f, -0.161648f, 0.235776f, -0.117923f, 0.241686f, 0.167241f, 0.113895f, 0.176066f, -0.154776f, -0.215334f, -0.202147f, -0.298272f, 0.112745f, 0.058704f, 0.174070f, 0.215650f, 0.139981f, 0.116164f, -0.346006f, -0.047483f, -0.267633f, -0.049899f, 0.063695f, -0.142166f, 0.183116f, 0.042001f, 0.007058f, 0.140670f, 0.250796f, -0.266325f, -0.072321f, 0.233322f, 0.038673f, 0.223903f, -0.322213f, -0.041867f, 0.115951f, -0.141064f, -0.220267f, 0.288976f, 0.190112f, -0.153457f, 0.004850f, -0.170837f, 0.075660f, 0.204518f, -0.103957f, 0.062735f, 0.009328f, 0.176527f, 0.224643f, 0.427839f, 0.051387f, 0.329048f, -0.116917f, 0.363249f, 0.113112f, 0.088387f, -0.025590f, -0.291171f, 0.147132f, 0.200260f, 0.206159f, 0.114047f, -0.044977f, 0.267815f, -0.240374f, 0.006516f, 0.132953f, 0.062470f, 0.028349f, 0.054894f, -0.303920f, 0.289976f, -0.038253f, 0.093449f, 0.198818f, 0.084663f, 0.085979f, -0.192678f, 0.094782f, -0.278420f, -0.023794f, -0.048982f, 0.191572f, -0.111722f, 0.237885f, -0.176223f, 0.299113f, 0.304975f, 0.121949f, 0.158056f, -0.178114f, 0.228431f, 0.275491f, -0.379324f, -0.147436f, 0.114892f, -0.017937f, -0.158393f, -0.286141f, 0.164452f, -0.323259f, 0.133974f, -0.034236f, -0.288989f, -0.229564f, -0.256727f, 0.012425f, -0.172550f, 0.038130f, -0.070686f, -0.180309f, 0.356073f, -0.211023f, 0.385606f, -0.281710f, -0.121354f, 0.190889f, 0.301039f, 0.145839f, 0.130484f, -0.140592f, 0.135014f, -0.249899f, -0.310734f, -0.322945f, 0.110852f, -0.062681f, 0.257742f, 0.257642f, -0.068148f, -0.063780f, 0.187915f, -0.157064f, -0.297124f, 0.098776f, -0.140046f, -0.168128f, -0.132949f, -0.233613f, -0.009392f, -0.008188f, -0.076584f, 0.101451f, -0.185400f, 0.052848f, 0.252182f, -0.001441f, -0.048543f, -0.255209f, 0.081418f, 0.102203f, -0.076272f, -0.226993f, 0.109542f, -0.060847f, -0.256538f, -0.171729f, 0.131477f, 0.070359f, 0.067259f, -0.036080f, 0.022664f, -0.171225f, 0.153259f, -0.128414f, 0.122601f, 0.013584f, 0.064978f, -0.693435f, -0.213856f, -0.598223f, 0.196877f, -0.634104f, 0.238005f, -0.489013f, -0.002299f, -0.139006f, 0.251041f, -0.226115f, 0.277890f, -0.111533f, 0.013611f, -0.032829f, -0.878704f, -1.025452f, 0.235331f, 0.094095f, 0.376280f, -0.554817f, 0.226633f, -1.024738f, -0.223834f, 0.121372f, -0.601901f, 0.195698f, -0.872112f, -0.048983f, 0.005175f, 0.307239f, 0.007190f, 0.086500f, -0.054608f, 0.133120f, -0.289358f, 0.216368f, -0.023782f, -0.071303f, -0.517628f, -0.008864f, -0.306449f, -0.108080f, -0.141276f, -0.202662f, 0.283296f, -0.040617f, -0.190433f, -0.024409f, -0.142646f, 0.185244f, -0.101643f, 0.336369f, 0.066774f, -0.158212f, 0.382286f, -0.259263f, 0.025475f, -0.037640f, -0.006929f, -0.106902f, -0.092770f, 0.026435f, 0.200613f, 0.106741f, -0.007750f, 0.114581f, -0.204284f, 0.034160f, -0.166698f, 0.230442f, 0.192374f, -0.010738f, 0.042976f, 0.155077f, 0.177161f, 0.057065f, -0.168701f, 0.011818f, 0.271638f, -0.135821f, 0.076581f, 0.114651f, -0.201779f, -0.001657f, -0.072963f, -0.231020f, 0.008682f, 0.199335f, -0.123416f, -0.126066f, 0.063316f, 0.061122f, -0.120731f, -0.221292f, -0.038030f, -0.282779f, -0.202376f, 0.204642f, 0.156322f, 0.319600f, -0.052339f, 0.144407f, 0.067070f, 0.150290f, 0.182990f, -0.015399f, 0.010548f, -0.241049f, -0.123195f, -0.090465f, 0.020331f, -0.266440f, 0.280531f, 0.218953f, -0.301756f, 0.005975f, 0.070625f, -0.112936f, -0.229909f, -0.194902f, -0.162777f, 0.103108f, 0.200354f, 0.054530f, -0.074672f, 0.119638f, -0.042102f, 0.339282f, 0.281746f, 0.084013f, 0.119781f, -0.238144f, 0.003845f, -0.069031f, -0.022046f, -0.053146f, -0.129625f, -0.317400f, 0.331258f, 0.026211f, 0.275483f, -0.143956f, -0.210589f, -0.024967f, -0.079551f, 0.213299f, -0.048746f, -0.082820f, -0.147907f, -0.028218f, -0.034397f, 0.001409f, 0.053052f, 0.125433f, -0.241231f, -0.248482f, -0.097209f, -0.060589f, -0.124210f, -0.183737f, -0.174748f, 0.121838f, -0.207095f, -0.022113f, 0.121472f, 0.241307f, -0.266566f, -0.145459f, -0.411775f, -0.162036f, -0.036299f, -0.042968f, 0.040470f, -0.102988f, -0.135708f, -0.194777f, 0.060768f, 0.046521f, -0.215015f, -0.239662f, -0.209131f, 0.123128f, -0.150087f, 0.076016f, -0.123189f, 0.257430f, -0.025915f, 0.094916f, 0.116985f, -0.041309f, 0.066828f, -0.300718f, -0.347901f, -0.122531f, -0.237937f, -0.145778f, 0.004983f, -0.193371f, 0.027369f, -0.083504f, 0.086103f, 0.101365f, 0.130929f, -0.075593f, 0.075803f, -0.200180f, 0.128133f };
static const float IoTmodel_layer_4_biases[1] = { 0.425472f };
static const float IoTmodel_layer_4_weights[30] = { 0.237109f, 0.263868f, -0.101214f, 0.263870f, -0.078752f, 0.196690f, -0.138019f, 0.272497f, -0.114829f, 0.101403f, 0.253611f, 0.256642f, 0.218114f, 0.181947f, 0.027295f, 0.286808f, -0.010087f, -0.079134f, -0.123934f, 0.309125f, 0.274847f, 0.205890f, -0.142226f, 0.246580f, -0.082317f, 0.322180f, 0.347450f, -0.082648f, 0.282615f, -0.123732f };
static float IoTmodel_buf1[30];
static float IoTmodel_buf2[30];
static const EmlNetLayer IoTmodel_layers[5] = { 
{ 30, 3, IoTmodel_layer_0_weights, IoTmodel_layer_0_biases, EmlNetActivationRelu }, 
{ 30, 30, IoTmodel_layer_1_weights, IoTmodel_layer_1_biases, EmlNetActivationRelu }, 
{ 30, 30, IoTmodel_layer_2_weights, IoTmodel_layer_2_biases, EmlNetActivationRelu }, 
{ 30, 30, IoTmodel_layer_3_weights, IoTmodel_layer_3_biases, EmlNetActivationRelu }, 
{ 1, 30, IoTmodel_layer_4_weights, IoTmodel_layer_4_biases, EmlNetActivationIdentity } };
static EmlNet IoTmodel = { 5, IoTmodel_layers, IoTmodel_buf1, IoTmodel_buf2, 30 };

    int32_t
    IoTmodel_predict(const float *features, int32_t n_features)
    {
        return eml_net_predict(&IoTmodel, features, n_features);
    }
    

    int32_t
    IoTmodel_regress(const float *features, int32_t n_features, float *out, int32_t out_length)
    {
        return eml_net_regress(&IoTmodel, features, n_features, out, out_length);
    }
    

    float
    IoTmodel_regress1(const float *features, int32_t n_features)
    {
        return eml_net_regress1(&IoTmodel, features, n_features);
    }
    