
#include <eml_net.h>
static const float IoTmodel_layer_0_biases[30] = { 0.221549f, 0.211167f, -0.140696f, -0.309356f, -0.174469f, -0.057865f, -0.250104f, 0.185560f, 0.128167f, 0.011928f, -0.115547f, 0.089739f, 0.142451f, -0.275466f, 0.203447f, -0.059124f, 0.166977f, -0.105053f, -0.029672f, -0.141875f, 0.187801f, -0.257316f, -0.175591f, -0.298875f, 0.181158f, -0.234079f, 0.027823f, -0.263381f, 0.005830f, -0.142373f };
static const float IoTmodel_layer_0_weights[150] = { -0.445718f, -0.248194f, -0.299717f, 0.157692f, 0.253721f, -0.694205f, 0.182224f, -0.362517f, -0.420043f, 0.246829f, 0.232603f, -0.550558f, -0.192860f, 0.044582f, -0.455310f, 0.327826f, -0.684930f, 0.452631f, -0.227401f, 0.263314f, 0.428513f, 0.047036f, -0.019305f, -0.012076f, -0.398755f, -0.032147f, 0.023367f, -0.223405f, -0.067464f, 0.324489f, -0.449705f, 0.199964f, -0.085407f, 0.073170f, -0.172874f, 0.256159f, -0.034365f, 0.250077f, 0.270537f, -0.215011f, -0.269685f, -0.001904f, -0.330114f, 0.035482f, 0.006985f, -0.297573f, -0.197678f, -0.040166f, 0.011288f, -0.258290f, -0.133039f, 0.262635f, 0.105401f, 0.132143f, 0.121159f, 0.095993f, 0.361824f, 0.130644f, -0.009016f, 0.338776f, -0.067079f, 0.133596f, 0.056027f, -0.246537f, 0.063198f, 0.048293f, 0.091072f, -0.477758f, 0.496366f, 0.049050f, 0.347472f, 0.371094f, -0.558170f, -0.381554f, 0.298115f, 0.452292f, -0.058304f, -0.068459f, 0.057612f, -0.055032f, -0.068774f, 0.091018f, 0.170814f, 0.105458f, -0.345100f, 0.125903f, 0.091618f, -0.193191f, -0.443884f, 0.014582f, 0.312863f, -0.379719f, 0.042839f, -0.175262f, -0.022209f, 0.160789f, -0.046979f, -0.126864f, 0.140380f, 0.338240f, 0.024606f, -0.046995f, -0.031292f, 0.190667f, 0.237654f, 0.217176f, -0.245749f, -0.006405f, -0.107844f, -0.187977f, -0.002130f, 0.183960f, 0.077086f, 0.059468f, 0.078434f, -0.080079f, 0.293641f, 0.061389f, -0.101851f, -0.271043f, -0.149497f, 0.015880f, -0.664996f, -0.383136f, -0.106850f, -0.142737f, 0.390296f, -0.276122f, -0.027697f, 0.058185f, -0.698142f, -0.219409f, 0.137435f, 0.198661f, 0.221873f, 0.188089f, 0.161856f, 0.274427f, 0.582457f, 0.119334f, 0.009317f, -0.147134f, 0.462390f, -0.350346f, 0.391570f, 0.325077f, -0.408836f, 0.237152f, -0.592006f, 0.097631f };
static const float IoTmodel_layer_1_biases[30] = { -0.144204f, -0.039683f, -0.195819f, -0.141563f, -0.225326f, -0.252963f, -0.076915f, -0.084988f, -0.005437f, 0.221160f, -0.164433f, -0.236715f, 0.223052f, -0.061818f, -0.197047f, -0.014041f, -0.103299f, 0.018971f, -0.144172f, 0.119979f, 0.011273f, -0.114474f, -0.042270f, 0.095293f, 0.366880f, -0.223375f, 0.118695f, -0.286209f, -0.065275f, -0.066101f };
static const float IoTmodel_layer_1_weights[900] = { -0.277175f, -0.504899f, 0.263279f, 0.031262f, -0.373896f, -0.134976f, -0.035251f, 0.034603f, -0.019574f, -0.010255f, -0.369210f, -0.100234f, -0.257203f, -0.123256f, 0.162906f, 0.199546f, 0.190124f, -0.243134f, -0.043216f, 0.093106f, -0.332494f, 0.097554f, -0.294652f, -0.089575f, 0.389421f, -0.422023f, -0.180622f, 0.263222f, -0.155605f, -0.118877f, -0.373679f, -0.363041f, 0.041998f, -0.186736f, -0.102312f, 0.136046f, 0.302576f, 0.190721f, -0.501936f, 0.269810f, -0.082817f, -0.028263f, 0.229680f, -0.075072f, 0.157586f, 0.212795f, -0.589111f, -0.313157f, -0.191821f, 0.256184f, 0.132967f, -0.248295f, 0.108314f, 0.256470f, 0.256576f, -0.101295f, -0.260459f, -0.552709f, 0.162371f, -0.102240f, -0.216874f, -0.382566f, 0.184277f, 0.149405f, 0.243938f, 0.065629f, -0.073606f, -0.014367f, -0.329075f, -0.409356f, -0.458456f, 0.401986f, 0.254837f, -0.150748f, -0.208706f, 0.103536f, 0.244399f, -0.311459f, 0.314183f, -0.023190f, -0.836292f, -0.174402f, -0.325905f, 0.083298f, 0.348118f, -0.040604f, 0.025688f, 0.366026f, -0.217260f, 0.180865f, -0.016145f, 0.222718f, -0.389567f, -0.133714f, 0.293687f, -0.115022f, -0.733025f, -0.127326f, -0.190539f, -0.274162f, 0.148548f, -0.460633f, -0.255215f, -0.312643f, 0.046054f, -0.224069f, 0.137267f, -0.160380f, 0.427528f, -0.085506f, 0.090932f, -0.414600f, -0.290600f, 0.010768f, -0.286494f, -0.339330f, -0.101666f, 0.099408f, -0.106757f, -0.253321f, 0.110616f, 0.191680f, -0.107154f, -0.247896f, -0.118420f, 0.266600f, 0.179962f, -0.189983f, 0.140488f, 0.342208f, -0.212171f, -0.121473f, -0.237062f, -0.303746f, 0.312102f, 0.044444f, -0.186500f, 0.255978f, 0.118201f, 0.216701f, -0.005082f, -0.289738f, 0.029221f, -0.041582f, -0.164942f, 0.095571f, 0.343554f, 0.134938f, -0.145553f, 0.182262f, -0.093301f, -0.065146f, -0.380175f, 0.258783f, -0.250926f, 0.080798f, -0.095749f, -0.101603f, 0.368061f, 0.235408f, -0.219122f, 0.483826f, -0.018579f, -0.066293f, -0.246598f, 0.100408f, 0.025556f, 0.175888f, -0.205130f, 0.116352f, -0.228318f, 0.241813f, -0.027268f, -0.122948f, 0.234446f, 0.152977f, -0.125975f, -0.600315f, 0.006524f, 0.131232f, -0.397898f, 0.217690f, 0.334551f, -0.307357f, 0.410448f, -0.252683f, -0.161656f, -0.122104f, 0.035420f, -0.074295f, -0.364948f, 0.355853f, -0.204397f, -0.315975f, 0.044104f, -0.096515f, -0.369384f, -0.121521f, -0.572467f, -0.162762f, 0.184993f, -0.207280f, -0.260479f, -0.040249f, 0.129552f, 0.089446f, 0.033656f, -0.519368f, 0.299962f, -0.050450f, 0.045970f, 0.150972f, -0.399581f, -0.413850f, 0.029393f, -0.069887f, -0.906082f, -0.463277f, 0.016594f, 0.205729f, -0.448004f, 0.189086f, -0.253309f, 0.024393f, 0.247197f, 0.204756f, -0.095513f, -0.316911f, 0.273335f, 0.212452f, -0.445644f, -0.758014f, -0.217801f, -0.066817f, 0.303065f, -0.426595f, 0.184776f, 0.146055f, 0.159056f, -0.294021f, 0.247624f, -0.147690f, -0.107807f, 0.245518f, 0.354899f, -0.198157f, 0.356800f, -0.523507f, -0.057310f, 0.195552f, 0.005749f, -0.049356f, -0.569829f, -0.219341f, 0.120492f, -0.006952f, -0.036339f, -0.216874f, -0.380551f, -0.108515f, -0.132300f, 0.231411f, -0.080891f, 0.165227f, 0.142035f, -0.154749f, -0.269577f, -0.370752f, -0.193756f, 0.036498f, -0.112916f, 0.057135f, 0.006447f, 0.039803f, 0.163397f, -0.117560f, 0.063790f, 0.354886f, -0.004476f, 0.020066f, 0.035072f, -0.791055f, 0.041220f, 0.125634f, -0.074004f, -0.249899f, 0.315507f, -0.041622f, -0.346692f, -0.291022f, 0.075859f, 0.003551f, 0.248868f, 0.286421f, 0.151340f, -0.067364f, 0.226742f, 0.083092f, 0.387978f, -0.305785f, 0.300704f, 0.214480f, 0.427887f, -0.070915f, 0.476806f, -0.184048f, 0.118030f, 0.217810f, -0.116541f, -0.201716f, -0.283270f, -0.328748f, -0.017324f, -0.319660f, 0.289495f, 0.214692f, -0.244250f, 0.094660f, 0.194767f, 0.139314f, 0.126665f, 0.159811f, 0.200985f, 0.338860f, 0.033750f, 0.174892f, -0.386895f, -0.122144f, -0.752559f, -0.308778f, -0.345923f, -0.074152f, 0.147938f, -0.181643f, 0.259643f, 0.529248f, -0.287921f, 0.057210f, -0.015892f, 0.371863f, -0.444043f, 0.002673f, -0.228881f, 0.160736f, -0.175081f, 0.240206f, -0.396048f, -0.188937f, -0.174879f, 0.000201f, -0.161522f, -0.022457f, 0.131276f, -0.280402f, 0.092591f, 0.199782f, -0.382312f, -0.259565f, -0.180069f, 0.128233f, -0.476084f, -0.285756f, -0.061694f, -0.200983f, 0.307755f, 0.255317f, -0.066329f, 0.361549f, -0.582609f, 0.105172f, 0.165315f, -0.618399f, -0.227872f, -0.113655f, -0.281655f, 0.179133f, 0.123438f, -0.188489f, -0.019354f, -0.151257f, -0.347141f, 0.148481f, -0.139298f, 0.052833f, 0.224601f, -0.136056f, -0.163582f, -0.070365f, 0.218926f, -0.073109f, -0.055717f, -0.069171f, -0.095185f, -0.068526f, 0.314345f, -0.004914f, -0.427722f, 0.293581f, 0.082313f, 0.227245f, -0.202450f, -0.175906f, -0.080586f, -0.300862f, -0.373801f, -0.188203f, -0.124733f, -0.194324f, 0.425808f, -0.359369f, 0.053918f, -0.054382f, -0.045606f, -0.081775f, -0.108551f, 0.145606f, 0.052656f, -0.275628f, 0.349713f, 0.036183f, -0.363987f, -0.142792f, -0.364785f, 0.279619f, -0.234799f, 0.083611f, -0.193895f, -0.370536f, -0.010916f, -0.104874f, -0.409602f, -0.129791f, -0.294376f, -0.320216f, -0.069544f, 0.237412f, 0.037289f, 0.046771f, -0.027363f, 0.232253f, -0.440243f, 0.222409f, -0.089228f, -0.153567f, 0.397541f, 0.120628f, 0.175463f, 0.143310f, -0.341487f, -0.318643f, 0.021480f, 0.012131f, -0.009073f, -0.287874f, -0.037264f, 0.074934f, 0.283129f, 0.091157f, 0.007426f, 0.030498f, 0.036756f, -0.208962f, 0.139229f, 0.147521f, 0.487030f, -0.449844f, -0.480697f, -0.004433f, -0.181615f, -0.331179f, 0.024627f, 0.010986f, -0.310080f, 0.194300f, 0.085558f, 0.300026f, -0.096309f, 0.062299f, -0.028856f, 0.175667f, 0.236132f, 0.405359f, -0.223079f, -0.421087f, -0.234610f, 0.293679f, -0.296758f, 0.063036f, 0.310449f, 0.183461f, 0.014917f, -0.417710f, -0.166531f, -0.301718f, -0.220977f, 0.108808f, -0.105506f, 0.139654f, -0.213502f, 0.158007f, 0.080447f, -0.074820f, -0.266471f, -0.285213f, 0.438700f, 0.080209f, -0.230144f, -0.096776f, 0.138348f, -0.146797f, -0.138602f, 0.021656f, 0.070988f, -0.101680f, 0.305356f, -0.574972f, -0.226747f, 0.341569f, 0.232799f, -0.013711f, -0.021728f, -0.205216f, 0.075982f, 0.092933f, -0.365437f, -0.118708f, -0.075012f, -0.101687f, -0.273291f, 0.224020f, 0.122509f, 0.045905f, 0.031082f, 0.432393f, -0.019382f, 0.096445f, 0.288784f, -0.212909f, 0.114327f, -0.202679f, -0.173579f, -0.238704f, 0.030610f, -0.080549f, -0.033286f, -0.133594f, -0.143826f, -0.264428f, -0.306209f, -0.076825f, 0.044130f, -0.086254f, 0.236525f, -0.039733f, 0.340343f, -0.154069f, -0.087067f, -0.019785f, -0.231673f, -0.091510f, 0.110263f, 0.161897f, -0.149477f, 0.031039f, 0.241706f, -0.223244f, -0.615715f, 0.001774f, -0.401400f, 0.407673f, 0.004017f, -0.081170f, 0.259371f, -0.281185f, 0.264509f, -0.030321f, 0.015149f, 0.494484f, -0.228057f, 0.287049f, -0.326262f, -0.329758f, -0.112929f, 0.037672f, 0.331267f, -0.212273f, -0.250786f, 0.169566f, -0.161511f, -0.222058f, -0.164572f, 0.057009f, -0.254920f, 0.225774f, -0.126984f, -0.041080f, -0.027610f, 0.322477f, 0.028863f, 0.213384f, -0.035620f, 0.258230f, 0.013254f, -0.519773f, -0.275723f, -0.151275f, -0.019507f, -0.171570f, -0.015882f, 0.193258f, 0.073582f, -0.056963f, 0.171675f, -0.268223f, -0.301614f, -0.924099f, 0.024149f, 0.297474f, 0.079946f, -0.152327f, 0.033430f, -0.171426f, -0.253888f, 0.487085f, -0.346766f, 0.145729f, -0.112306f, 0.272871f, -0.137071f, 0.106276f, -0.103217f, -0.126544f, -0.633975f, 0.175744f, 0.197672f, -0.026706f, -0.162624f, -0.072194f, -0.150896f, -0.203924f, -0.055056f, 0.304895f, -0.236954f, 0.189703f, -0.187063f, -0.260754f, -0.033638f, -0.117977f, -0.233756f, 0.241175f, -0.157620f, 0.197244f, 0.088462f, 0.359706f, -0.153649f, -0.332715f, 0.219024f, -0.280954f, -0.113058f, 0.175617f, 0.120668f, 0.139651f, 0.441814f, -0.111612f, -0.004111f, 0.082902f, 0.011510f, -0.116288f, -0.146619f, 0.139025f, 0.058090f, 0.064431f, 0.159714f, -0.149855f, 0.320822f, -0.047405f, -0.335915f, 0.216639f, -0.310799f, 0.162429f, -0.133076f, 0.203646f, 0.257545f, 0.325375f, 0.270606f, 0.022284f, 0.416328f, -0.341496f, -0.365446f, -0.119087f, 0.059208f, 0.236559f, -0.703149f, -0.233562f, 0.215604f, 0.066722f, -0.391738f, -0.019692f, 0.148244f, 0.065242f, -0.470542f, 0.520966f, -0.005073f, 0.072010f, -0.366655f, 0.374683f, 0.249284f, -0.201471f, 0.567405f, -0.304341f, -0.071707f, 0.583745f, 0.016088f, 0.175523f, -0.226139f, -0.150369f, -0.448168f, -0.347438f, -0.525196f, 0.125302f, 0.012754f, -0.071112f, 0.407097f, -0.037598f, 0.352376f, 0.181115f, -1.042189f, -0.024743f, -0.373252f, -0.118985f, -0.374673f, -0.711380f, -0.152783f, -0.304983f, -0.368677f, 0.128508f, -0.772904f, 0.107201f, 0.293184f, 0.120861f, 0.009232f, -0.155491f, -0.241473f, 0.087030f, 0.267865f, -0.468822f, 0.189509f, 0.129389f, -0.304832f, -0.198177f, 0.007669f, -0.132790f, 0.336719f, -0.267090f, -0.273212f, -0.120730f, 0.101958f, -0.157198f, 0.111410f, -0.207569f, -0.042423f, 0.206047f, -0.155505f, 0.145114f, 0.412678f, 0.024846f, 0.256515f, 0.159535f, -0.023429f, -0.417298f, 0.092293f, -0.317252f, 0.158830f, 0.056054f, 0.204806f, -0.168823f, -0.244752f, -0.081487f, 0.128172f, -0.229849f, -0.277472f, -0.174445f, -0.634642f, -0.142385f, -0.207851f, 0.118801f, -0.345603f, -0.182740f, 0.245994f, 0.144341f, -0.243768f, 0.077545f, -0.219591f, -0.146802f, -0.083940f, 0.044086f, 0.112444f, 0.182487f, -0.102446f, -0.200793f, 0.188017f, -0.096082f, -0.308118f, 0.303777f, 0.159189f, -0.100608f, -0.273072f, -0.400305f, -0.285085f, -0.230403f, -0.083285f, -0.207318f, 0.075828f, 0.181309f, -0.066599f, 0.175373f, -0.070050f, -0.274202f, 0.227752f, -0.131411f, 0.144726f, 0.099712f, 0.194597f, 0.251236f, -0.405481f, 0.062541f, 0.176362f, -0.306314f, -0.278015f, -0.234848f, 0.060534f, 0.136917f, -0.039006f, 0.158519f, 0.118051f, 0.139737f, -0.281732f, 0.026871f, -0.272966f, 0.251631f, -0.271779f, -0.002497f, -0.380338f, 0.017041f, 0.001698f, -0.038778f, -0.144166f, -0.393944f, 0.283500f, -0.344221f, 0.346568f, 0.018906f, 0.312073f, -0.000546f, -0.157823f, -0.307188f, 0.127350f, 0.200050f, 0.007508f, -0.081096f, 0.351467f, 0.138805f, -0.006839f, 0.073563f, 0.358881f, -0.169480f, -0.896658f, 0.140483f, -0.502959f, -0.051000f, 0.178978f, 0.228803f, -0.025684f, -0.297856f, -0.130319f, -0.038707f, -0.101411f, -0.368092f, 0.324747f, -0.311687f, 0.092063f, 0.008429f, -0.166200f, 0.067259f, 0.097829f, -0.249318f, -0.236429f, 0.355737f, -0.154536f, 0.069821f, 0.171632f, -0.083420f, -0.347497f, -0.008842f, -0.121967f, -0.267183f, 0.005862f, -0.192685f, 0.364517f, -0.244914f };
static const float IoTmodel_layer_2_biases[30] = { -0.136825f, 0.104662f, -0.081359f, 0.151844f, 0.073322f, 0.210833f, -0.187567f, -0.088875f, -0.182114f, 0.031259f, -0.133086f, 0.034639f, -0.176298f, -0.017219f, -0.049432f, -0.023191f, -0.056984f, 0.136507f, -0.011473f, -0.048667f, 0.291145f, -0.066808f, 0.005153f, 0.001495f, -0.095360f, -0.022604f, -0.227320f, 0.047865f, -0.030105f, 0.045507f };
static const float IoTmodel_layer_2_weights[900] = { 0.054060f, -0.114607f, -0.132461f, 0.072902f, -0.069463f, 0.036758f, 0.191396f, 0.082793f, -0.294836f, 0.197208f, 0.041573f, -0.099775f, -0.005318f, 0.094624f, -0.384399f, -0.007271f, 0.124026f, -0.002960f, -0.210255f, -0.129588f, 0.058354f, 0.016713f, -0.363263f, 0.002797f, -0.319040f, 0.164466f, -0.008313f, -0.325951f, -0.252894f, -0.220265f, -0.018154f, 0.057177f, -0.035518f, 0.079539f, 0.046325f, 0.053345f, 0.121457f, 0.160405f, 0.020643f, 0.319624f, -0.124318f, -0.052663f, 0.087863f, -0.258856f, -0.052326f, 0.034516f, 0.217932f, -0.288874f, -0.373430f, 0.223143f, 0.217526f, -0.121130f, -0.075493f, 0.236500f, -0.487328f, -0.144124f, -0.331848f, -0.036510f, -0.286134f, -0.316883f, -0.257113f, -0.273958f, -0.129547f, -0.432159f, 0.117956f, -0.294304f, -0.290787f, -0.306662f, -0.071598f, -0.297585f, -0.014109f, -0.115719f, 0.350645f, 0.023335f, -0.181227f, 0.194385f, -0.122937f, 0.063986f, -0.231279f, -0.131793f, -0.219238f, 0.072775f, -0.503234f, -0.202145f, 0.342621f, 0.202213f, -0.256174f, 0.275093f, -0.488018f, -0.050083f, 0.063668f, 0.160123f, -0.234533f, -0.025212f, -0.155138f, 0.136327f, -0.186000f, 0.112520f, -0.159117f, -0.087783f, 0.033237f, 0.097040f, 0.061032f, -0.302055f, 0.043135f, 0.208160f, -0.098065f, 0.129048f, 0.215397f, -0.299990f, -0.027533f, 0.076290f, -0.082776f, -0.234365f, -0.400099f, 0.115207f, -0.270929f, 0.226344f, -0.167030f, 0.125372f, -0.167420f, -0.089852f, 0.112662f, -0.410888f, 0.022312f, -0.203849f, 0.059145f, -0.033810f, -0.236043f, 0.218995f, -0.026818f, 0.080447f, -0.332383f, -0.023670f, -0.368515f, 0.122799f, 0.309835f, -0.032323f, -0.167095f, 0.246099f, -0.408314f, 0.076281f, 0.022857f, 0.078246f, -0.405930f, 0.227492f, -0.264116f, -0.082703f, 0.004596f, -0.361161f, -0.102684f, 0.110576f, -0.138779f, 0.024446f, -0.214981f, 0.107069f, 0.028607f, -0.085455f, 0.038642f, 0.076002f, -0.027790f, -0.122550f, 0.105455f, 0.159514f, -0.283027f, -0.283577f, -0.261658f, -0.049749f, -0.271453f, -0.274568f, -0.241509f, 0.092200f, -0.191888f, 0.116442f, -0.077843f, 0.111265f, -0.277127f, -0.053671f, 0.193103f, 0.071443f, -0.101734f, -0.106407f, 0.241768f, -0.447656f, -0.349676f, -0.656246f, 0.114222f, 0.213051f, 0.196575f, -0.061362f, -0.226069f, -0.003222f, 0.173128f, -0.295938f, -0.211842f, 0.036623f, -0.114615f, 0.153015f, 0.060622f, -0.282245f, -0.399125f, 0.081228f, -0.207202f, -0.297967f, 0.347100f, -0.231649f, -0.370233f, 0.424326f, 0.064479f, -0.086863f, -0.298242f, -0.273083f, -0.354613f, 0.252466f, -0.404331f, 0.199309f, 0.000740f, 0.162861f, 0.272061f, -0.020312f, -0.223984f, 0.198720f, 0.471713f, -0.168619f, 0.205778f, -0.209379f, -0.077474f, 0.141113f, -0.188663f, -0.303193f, -0.270395f, 0.109883f, 0.104572f, 0.294534f, 0.238831f, 0.241627f, -0.290217f, 0.138147f, 0.073343f, -0.193371f, 0.097279f, 0.043711f, -0.016206f, 0.119299f, 0.007001f, 0.052847f, -0.363248f, 0.005346f, -0.035817f, -0.075034f, 0.194251f, 0.281522f, 0.013696f, -0.095199f, -0.385462f, -0.241115f, -0.180128f, -0.133868f, -0.291867f, -0.185516f, 0.324339f, 0.202997f, -0.060580f, 0.235661f, -0.193964f, -0.299939f, 0.289740f, -0.158949f, -0.133599f, -0.326235f, -0.013117f, 0.080298f, -0.503384f, -0.255855f, 0.058872f, -0.005224f, -0.100202f, -0.085678f, -0.050278f, -0.293122f, 0.021538f, -0.226675f, -0.390369f, -0.035253f, 0.050192f, 0.210780f, -0.052289f, 0.167292f, -0.301347f, -0.148893f, -0.059385f, 0.244806f, -0.375277f, 0.048202f, 0.003220f, -0.222669f, 0.066145f, 0.005385f, -0.128479f, -0.093494f, 0.125277f, -0.345152f, -0.063316f, 0.137344f, -0.054484f, 0.234836f, 0.169994f, 0.060478f, -0.200169f, -0.250153f, 0.168051f, 0.238844f, 0.054214f, 0.217709f, -0.066467f, -0.194728f, 0.084891f, -0.091873f, 0.037884f, 0.259466f, -0.245306f, 0.009974f, -0.239733f, 0.177046f, -0.026780f, -0.141613f, -0.132661f, 0.259940f, 0.112726f, 0.176592f, -0.098883f, -0.581470f, 0.086973f, -0.066234f, 0.644090f, -0.205661f, -0.045114f, -0.188536f, -0.248513f, -0.109598f, 0.105077f, -0.110003f, -0.086568f, 0.251016f, -0.042703f, -0.043780f, -0.220759f, -0.271824f, -0.266645f, -0.131259f, 0.454929f, 0.132857f, -0.397091f, -0.110262f, -0.392214f, -0.236650f, 0.895158f, -0.706537f, 0.112632f, -0.277513f, -0.084247f, -0.238912f, -0.453482f, -0.084624f, 0.137013f, -0.144069f, -0.133670f, 0.132188f, 0.048983f, 0.114833f, 0.295339f, 0.032508f, -0.160708f, -0.444816f, -0.309175f, 0.001021f, 0.160843f, -0.243180f, 0.262614f, -0.298345f, -0.057899f, 0.007235f, 0.179113f, -0.062101f, 0.038200f, -0.265002f, -0.074474f, -0.195300f, 0.099989f, -0.069167f, -0.007448f, 0.248129f, 0.194936f, -0.098214f, 0.151014f, 0.073171f, -0.245938f, 0.057393f, -0.083415f, -0.326338f, 0.294573f, 0.203510f, -0.274666f, -0.084794f, -0.223322f, -0.125523f, 0.090291f, 0.172062f, 0.016284f, -0.282639f, -0.090720f, 0.125214f, 0.017533f, 0.006803f, 0.275812f, 0.020128f, -0.216422f, -0.162942f, 0.155555f, -0.131361f, -0.079786f, 0.139812f, 0.117248f, -0.018352f, -0.490468f, 0.192133f, -0.189954f, -0.282176f, -0.054371f, 0.124777f, -0.229136f, 0.339368f, 0.302830f, 0.224470f, 0.096221f, 0.279024f, 0.056672f, -0.119358f, 0.007924f, 0.065661f, -0.166456f, 0.126504f, 0.017300f, 0.086950f, 0.102037f, 0.013293f, -0.366741f, -0.208767f, -0.251985f, -0.525032f, -0.211683f, 0.087896f, 0.009905f, -0.234756f, 0.031659f, 0.020774f, 0.184259f, 0.247584f, -0.100046f, -0.132967f, 0.127199f, 0.274031f, -0.229462f, -0.134415f, -0.351608f, 0.064388f, -0.200638f, 0.218373f, -0.275223f, -0.310021f, -0.143745f, -0.120316f, -0.135635f, -0.007343f, -0.035778f, -0.200638f, 0.362631f, 0.064874f, -0.256846f, -0.303839f, -0.047612f, -0.017247f, 0.323230f, 0.377120f, -0.198659f, 0.083683f, -0.069222f, 0.318826f, -0.156311f, 0.272890f, -0.136936f, 0.258897f, -0.535186f, -0.068333f, -0.007752f, -0.039794f, -0.132555f, -0.049574f, -0.204681f, 0.085160f, -0.271843f, 0.089726f, -0.045358f, 0.263213f, -0.337066f, -0.322726f, -0.616990f, -0.233690f, -0.256739f, 0.103446f, 0.029273f, -0.204689f, -0.054108f, 0.352860f, -0.090314f, 0.057708f, 0.138009f, 0.233723f, -0.220884f, 0.246012f, 0.214721f, 0.283973f, -0.269697f, 0.220717f, -0.178481f, -0.154189f, -0.283898f, -0.339253f, 0.041543f, -0.333502f, -0.170953f, 0.241059f, -0.179809f, 0.270251f, -0.079672f, -0.208366f, 0.015410f, -0.018305f, -0.139996f, 0.234998f, -0.099289f, -0.287245f, -0.210031f, -0.214586f, 0.179126f, 0.051689f, 0.034883f, -0.064880f, 0.012948f, -0.674250f, -0.081325f, -0.245726f, -0.161793f, -0.191180f, -0.014550f, 0.067257f, 0.030556f, 0.036816f, 0.008063f, -0.309686f, -0.231558f, -0.142295f, 0.008004f, -0.573626f, 0.213610f, 0.105157f, -0.414203f, 0.196468f, -0.083555f, -0.241051f, -0.289424f, 0.078950f, -0.324646f, -0.159174f, 0.041591f, 0.153211f, -0.424287f, 0.023170f, -0.003489f, -0.150392f, 0.119253f, -0.039156f, -0.300754f, -0.290263f, -0.114375f, -0.140569f, 0.267327f, 0.051644f, 0.228378f, -0.328093f, 0.179548f, -0.027967f, -0.386548f, 0.038763f, -0.003361f, 0.103745f, -0.300205f, 0.150530f, -0.178080f, -0.236170f, -0.004540f, 0.200982f, 0.078214f, 0.259273f, 0.292860f, 0.126253f, 0.096789f, -0.071995f, 0.195095f, 0.036717f, -0.284735f, -0.296125f, -0.004197f, 0.106834f, 0.004109f, -0.107136f, -0.030805f, 0.159562f, -0.226329f, 0.154514f, 0.208155f, -0.001291f, 0.011767f, -0.058768f, -0.592663f, -0.138273f, -0.245030f, -0.196780f, 0.017536f, -0.031983f, 0.079186f, 0.038584f, -0.261923f, 0.098467f, -0.113182f, -0.217858f, -0.254589f, -0.299895f, 0.045858f, 0.054614f, -0.017926f, -0.053217f, -0.004357f, 0.046237f, -0.204961f, -0.296571f, -0.227040f, 0.117176f, 0.245399f, 0.151521f, -0.147306f, -0.211674f, -0.033069f, 0.078199f, 0.263731f, 0.110313f, -0.688888f, 0.054573f, -0.435518f, 0.023454f, 0.057362f, -0.237296f, -0.274015f, 0.137980f, 0.161080f, -0.145607f, -0.142973f, 0.038298f, 0.341010f, 0.291093f, -0.113519f, -0.277204f, 0.319457f, -0.143553f, -0.045405f, 0.034814f, 0.130033f, -0.083701f, -0.237562f, 0.181645f, 0.014035f, 0.233615f, 0.031220f, 0.187824f, 0.267244f, 0.268075f, 0.232292f, -0.146394f, -0.243915f, 0.311447f, -0.107617f, -0.333916f, -0.117947f, 0.341826f, 0.250170f, 0.146295f, -0.142892f, -0.223996f, 0.039739f, 0.210634f, -0.131525f, 0.128846f, 0.079989f, 0.134608f, 0.106392f, -0.235157f, 0.000984f, -0.243469f, -0.162115f, -0.118785f, 0.319268f, -0.160578f, 0.170457f, 0.068945f, 0.059098f, -0.038413f, -0.009893f, 0.009035f, 0.169546f, 0.215877f, 0.031967f, 0.148845f, -0.184753f, -0.284567f, -0.111677f, -0.210784f, 0.037551f, -0.158373f, -0.036528f, -0.474186f, -0.098569f, -0.375175f, -0.015142f, -0.527148f, -0.055959f, -0.183792f, -0.622958f, 0.366664f, -0.109592f, -0.128877f, -0.120531f, -0.547467f, -0.423774f, -0.409520f, -0.143405f, -0.304705f, 0.040991f, 0.213371f, -0.245616f, 0.014794f, -0.000288f, 0.123629f, 0.163923f, 0.084664f, -0.201046f, 0.075312f, -0.213408f, 0.131801f, 0.202162f, 0.453602f, 0.017921f, 0.050514f, 0.080932f, 0.151625f, -0.019829f, -0.230979f, 0.123498f, -0.134310f, -0.136275f, -0.328966f, 0.126488f, -0.011029f, -0.094784f, 0.191572f, 0.004020f, 0.254919f, -0.014350f, -0.120263f, 0.126173f, -0.157176f, 0.051572f, 0.088174f, -0.135593f, 0.112941f, 0.151128f, 0.070517f, 0.159362f, -0.178479f, -0.222073f, 0.196487f, 0.128569f, 0.071418f, 0.176285f, 0.066445f, -0.188340f, -0.109068f, -0.137976f, -0.246047f, -0.259174f, 0.187680f, -0.016033f, -0.091385f, -0.116614f, 0.166068f, -0.613784f, 0.058672f, -0.023682f, -0.305863f, 0.033424f, 0.042075f, -0.054822f, -0.307226f, 0.166572f, -0.247103f, -0.040983f, -0.311662f, -0.170004f, 0.154195f, 0.148418f, -0.117897f, 0.166366f, -0.297506f, 0.456906f, 0.157714f, -0.258491f, 0.019144f, -0.294403f, 0.058163f, -0.105192f, 0.041419f, -0.477715f, -0.037849f, 0.222520f, 0.159397f, 0.361440f, -0.005519f, 0.258013f, 0.300847f, -0.047082f, -0.327227f, -0.243039f, -0.640786f, 0.379852f, 0.200935f, 0.279716f, 0.270668f, -0.242486f, -0.216357f, -0.288898f, 0.161237f, -0.231699f, 0.291180f, -0.141893f, 0.063281f, 0.130427f, -0.287802f, -0.119351f, -0.282250f, 0.115829f, -0.199074f, 0.050660f, 0.050618f, 0.148395f, 0.382011f, -0.076985f, -0.234963f, 0.128765f, -0.285450f, 0.182364f, 0.022130f, 0.256899f, 0.061926f, -0.021664f, 0.235706f, -0.263003f, 0.238288f, -0.292544f, -0.262462f, -0.185405f, -0.298457f, -0.178958f, -0.208614f, -0.215836f, -0.252854f, -0.167963f, -0.217460f, -0.214330f, 0.127892f, -0.310952f, 0.264310f, -0.010395f, -0.064225f, 0.058971f, -0.085979f, -0.245034f, -0.192203f, -0.196788f, -0.159809f, 0.118505f, -0.062216f };
static const float IoTmodel_layer_3_biases[30] = { 0.134778f, 0.045607f, 0.045852f, 0.091211f, 0.078418f, 0.109584f, 0.063868f, 0.195144f, 0.080159f, 0.039507f, 0.122391f, 0.049024f, 0.157714f, 0.078683f, -0.011882f, -0.059723f, 0.043971f, 0.048114f, 0.036489f, -0.108418f, -0.013508f, 0.064431f, -0.086293f, 0.098392f, 0.105332f, 0.096779f, 0.137265f, 0.091003f, 0.082955f, 0.060000f };
static const float IoTmodel_layer_3_weights[900] = { 0.188869f, -0.199143f, 0.019602f, -0.134148f, -0.153802f, -0.215700f, 0.208275f, 0.178325f, 0.013634f, -0.164317f, -0.237521f, -0.217272f, -0.102318f, 0.034099f, -0.035029f, -0.051986f, 0.185985f, -0.153005f, -0.080847f, 0.260288f, 0.127098f, 0.066144f, -0.080471f, 0.167331f, -0.068958f, -0.196301f, 0.222994f, 0.115084f, 0.069464f, -0.042536f, -0.384633f, 0.052981f, 0.159041f, -0.302473f, 0.243013f, -0.198501f, 0.077043f, -0.286031f, -0.012656f, -0.042859f, -0.318517f, 0.154074f, -0.315234f, 0.077554f, -0.034669f, -0.073159f, 0.077192f, 0.111981f, 0.041931f, -0.211539f, -0.121776f, -0.229618f, -0.047444f, 0.062995f, 0.236693f, 0.264584f, -0.415658f, -0.015469f, 0.162412f, -0.025859f, -0.128097f, -0.241983f, -0.188821f, 0.103452f, 0.169668f, 0.101389f, -0.248579f, 0.162910f, -0.147713f, 0.136245f, 0.082703f, -0.149483f, 0.040988f, 0.196779f, -0.086625f, -0.053192f, -0.082388f, -0.019678f, -0.168948f, -0.070084f, 0.022126f, 0.076759f, 0.007134f, 0.197566f, -0.254311f, -0.441791f, 0.059149f, 0.147650f, 0.216950f, 0.012224f, 0.354117f, -0.539789f, 0.137276f, -0.059785f, -0.546245f, 0.352762f, -0.451986f, 0.426807f, -0.319106f, -0.329002f, 0.249518f, -0.152326f, 0.258940f, -0.204463f, 0.066909f, 0.061481f, -0.441709f, -0.283622f, -0.665052f, 0.025055f, -0.076530f, 0.284938f, -0.241672f, -0.031728f, -0.022733f, -0.029151f, 0.048355f, 0.304611f, 0.082684f, -0.569205f, 0.329392f, -0.464897f, 0.034541f, 0.098888f, -0.413383f, 0.287428f, -0.393768f, 0.249251f, -0.081526f, -0.371950f, -0.009893f, -0.303761f, -0.006797f, -0.146198f, -0.127781f, -0.321154f, -0.248707f, 0.000131f, -0.377609f, -0.222897f, 0.013545f, -0.022701f, 0.191546f, -0.223502f, -0.179326f, -0.168869f, 0.093454f, 0.033855f, -0.329948f, -0.294166f, 0.399554f, -0.148747f, -0.452554f, 0.414312f, -0.590576f, -0.197516f, -0.134068f, 0.206134f, -0.292751f, -0.363424f, 0.201265f, -0.212218f, 0.176209f, -0.282165f, -0.068615f, -0.052464f, -0.141089f, -0.375798f, -0.316433f, 0.038008f, 0.272217f, 0.406541f, 0.057512f, -0.090862f, -0.510616f, -0.255229f, 0.321582f, 0.238780f, -0.142310f, -0.070491f, 0.058148f, 0.150537f, 0.207364f, -0.160236f, -0.034301f, -0.273736f, -0.034870f, -0.106861f, -0.129123f, -0.124323f, 0.245673f, -0.124041f, 0.026216f, -0.114667f, 0.178551f, -0.137834f, -0.268504f, -0.223658f, -0.182804f, -0.096164f, 0.156639f, 0.070999f, 0.171715f, 0.116016f, 0.112138f, 0.102362f, -0.028203f, 0.047089f, 0.248764f, 0.106404f, 0.220399f, 0.181868f, -0.249433f, -0.303099f, 0.029403f, 0.010289f, -0.161445f, 0.076905f, 0.084086f, -0.304018f, -0.285939f, 0.075383f, 0.111813f, -0.238153f, 0.267911f, -0.133466f, 0.244923f, -0.016515f, 0.161243f, -0.000279f, -0.008869f, 0.235214f, 0.083535f, 0.094720f, 0.165780f, -0.175813f, 0.060176f, -0.084231f, -0.121033f, -0.194742f, 0.075021f, -0.143602f, -0.114953f, 0.083698f, 0.031220f, -0.061781f, 0.091292f, -0.093857f, 0.048668f, 0.166210f, -0.212035f, -0.056773f, 0.171050f, 0.162169f, 0.001254f, -0.015022f, -0.057714f, 0.104934f, 0.006886f, -0.164104f, -0.160270f, -0.226697f, -0.298346f, -0.019845f, -0.117362f, -0.105133f, 0.200138f, -0.246119f, 0.116568f, 0.076869f, 0.140833f, -0.146877f, -0.124047f, 0.008332f, 0.272106f, -0.138561f, -0.141482f, 0.227193f, -0.027579f, -0.287584f, 0.126765f, 0.240773f, 0.403490f, -0.036463f, -0.279321f, -0.361982f, 0.088663f, 0.084904f, 0.141592f, -0.014743f, -0.293365f, 0.327753f, 0.217530f, 0.063527f, 0.147567f, -0.107319f, 0.231523f, 0.300295f, 0.322076f, -0.107188f, 0.103827f, -0.095107f, -0.245491f, 0.015448f, -0.037368f, 0.000547f, 0.033936f, 0.021246f, -0.044471f, 0.172832f, 0.021653f, -0.171532f, -0.049870f, -0.037389f, 0.284129f, -0.109704f, -0.254574f, -0.133849f, 0.093127f, -0.278761f, 0.259127f, 0.035002f, 0.253787f, 0.144573f, 0.026945f, -0.247533f, 0.094062f, -0.123390f, 0.304611f, -0.197169f, 0.109014f, -0.247921f, -0.053683f, 0.307823f, 0.201361f, 0.106564f, 0.203021f, -0.136964f, -0.167023f, -0.013997f, 0.290508f, -0.199088f, 0.145728f, 0.091448f, -0.153254f, -0.170735f, 0.242445f, 0.086415f, 0.021750f, -0.210741f, -0.301726f, -0.130393f, -0.285179f, 0.222447f, 0.155308f, 0.285175f, 0.108921f, 0.226379f, -0.041994f, 0.107804f, 0.056374f, 0.443989f, 0.042277f, -0.347128f, 0.526408f, -0.298913f, 0.226411f, 0.064633f, 0.146723f, -0.041171f, -0.171915f, 0.051458f, -0.256736f, 0.320166f, -0.057628f, -0.110785f, 0.237607f, 0.031111f, 0.344451f, 0.039039f, 0.010721f, 0.115030f, -0.078951f, 0.230093f, 0.297595f, 0.419481f, -0.278142f, -0.037225f, 0.533521f, -0.000078f, -0.086992f, 0.301738f, 0.036615f, 0.214887f, -0.211208f, 0.054383f, 0.058870f, 0.229590f, -0.097437f, -0.095647f, -0.144222f, 0.154222f, 0.201516f, -0.236479f, -0.035958f, -0.310024f, -0.084451f, -0.276312f, -0.151877f, 0.149052f, 0.256258f, 0.009845f, -0.337260f, 0.077969f, -0.277309f, -0.211670f, 0.052375f, 0.176184f, -0.266962f, 0.182473f, 0.093463f, -0.050294f, -0.120457f, -0.326100f, -0.052853f, 0.098444f, -0.325356f, 0.173999f, 0.111367f, -0.044018f, 0.017915f, 0.202597f, -0.058757f, -0.042981f, -0.060055f, -0.308203f, -0.070191f, -0.189784f, -0.217398f, 0.137474f, 0.134439f, -0.003053f, -0.093774f, 0.160901f, 0.183844f, 0.202384f, 0.193075f, 0.095952f, -0.022553f, 0.301932f, -0.055609f, 0.223231f, -0.098156f, -0.185445f, 0.184082f, -0.203636f, 0.144035f, -0.051049f, -0.130249f, 0.105251f, -0.285512f, 0.250580f, 0.269675f, 0.165703f, -0.089190f, -0.124863f, 0.054439f, 0.141025f, 0.285592f, -0.201994f, -0.295838f, -0.184041f, -0.096883f, 0.224744f, 0.209743f, 0.270859f, 0.204482f, 0.026605f, 0.220712f, 0.221933f, 0.169360f, 0.137097f, 0.273848f, -0.010591f, 0.024289f, -0.039560f, 0.185852f, 0.066108f, -0.204941f, 0.176647f, -0.124152f, 0.248157f, 0.202222f, -0.045972f, -0.195639f, -0.222504f, -0.192696f, 0.124508f, -0.294155f, -0.039904f, 0.052096f, -0.161474f, 0.092091f, 0.080203f, -0.133635f, 0.312509f, -0.051820f, 0.156739f, -0.188845f, 0.207605f, -0.298349f, 0.232055f, 0.334531f, -0.599492f, 0.102305f, -0.177705f, 0.183095f, -0.316923f, 0.361481f, 0.405019f, -0.474911f, 0.143577f, -0.342105f, 0.197043f, -0.064479f, -0.315972f, 0.248218f, 0.418660f, 0.468890f, 0.104290f, 0.112954f, -0.278688f, -0.107753f, 0.043679f, -0.074715f, -0.046526f, -0.417408f, -0.386155f, 0.043970f, 0.378333f, -0.158431f, 0.069144f, -0.201041f, 0.027649f, -0.306800f, 0.007411f, -0.373684f, 0.252828f, -0.136070f, 0.189521f, -0.043937f, -0.148380f, 0.306798f, -0.012029f, 0.270130f, 0.038090f, 0.146293f, 0.222321f, -0.241146f, -0.054123f, -0.121876f, 0.312090f, 0.061449f, 0.080675f, 0.082730f, -0.250097f, 0.010302f, 0.288747f, 0.162474f, 0.150718f, -0.114132f, -0.239865f, -0.108758f, -0.067426f, -0.292745f, -0.132511f, -0.233791f, -0.044890f, -0.010098f, -0.174876f, 0.067882f, -0.194371f, -0.022530f, -0.243288f, 0.045847f, -0.079583f, 0.100610f, 0.212339f, 0.198472f, -0.259123f, 0.199054f, 0.238778f, -0.034637f, 0.199715f, 0.264277f, 0.271992f, 0.319426f, -0.135532f, 0.189186f, 0.301241f, 0.132666f, -0.310056f, -0.488818f, 0.443881f, -0.319759f, 0.230012f, -0.327117f, 0.042633f, -0.400970f, -0.315430f, 0.377052f, -0.428326f, 0.154396f, -0.366127f, -0.259056f, -0.000786f, -0.339127f, -0.402364f, -0.313628f, 0.031933f, -0.298072f, 0.315126f, -0.093934f, -0.347838f, -0.480848f, -0.497564f, 0.324343f, 0.170791f, -0.326813f, -0.540086f, 0.288978f, -0.023185f, -0.082574f, -0.171835f, 0.118131f, 0.053367f, 0.305105f, 0.134969f, 0.225630f, -0.144130f, -0.157772f, -0.105857f, 0.225438f, 0.008417f, 0.094498f, -0.290804f, 0.127014f, -0.172207f, -0.312951f, -0.277030f, -0.165681f, -0.015468f, -0.185621f, -0.272437f, -0.084082f, -0.413110f, -0.186592f, -0.093863f, 0.067438f, -0.114447f, 0.078201f, 0.115504f, -0.087678f, 0.274976f, 0.216584f, -0.115733f, -0.123068f, 0.201677f, 0.141879f, 0.208565f, 0.032212f, -0.235014f, 0.050343f, 0.021003f, -0.263549f, 0.098638f, -0.079980f, 0.165818f, 0.139675f, 0.147937f, -0.170171f, 0.120913f, 0.208480f, -0.197561f, 0.021414f, -0.173637f, -0.213851f, -0.138195f, 0.244974f, 0.002281f, 0.290821f, 0.159736f, 0.070149f, 0.046807f, -0.149847f, 0.223702f, -0.360845f, 0.332968f, 0.043344f, -0.297342f, 0.278846f, -0.219867f, -0.101309f, -0.451277f, -0.094491f, -0.014184f, 0.017119f, -0.357365f, 0.029093f, -0.262473f, 0.114053f, 0.153646f, 0.100983f, 0.186947f, -0.199922f, -0.220061f, 0.380415f, -0.241924f, -0.309760f, -0.338908f, -0.155695f, 0.041529f, 0.246294f, 0.099767f, 0.201366f, -0.014471f, -0.100115f, -0.279795f, -0.061557f, -0.068476f, -0.047558f, -0.032556f, -0.197707f, 0.118992f, -0.120507f, -0.272858f, 0.145020f, -0.024594f, 0.385395f, -0.045457f, -0.309348f, -0.173818f, 0.172852f, -0.218340f, 0.064050f, -0.066829f, -0.187925f, -0.190593f, 0.235223f, 0.047012f, 0.068101f, 0.065674f, -0.145131f, -0.260788f, -0.313979f, -0.084422f, -0.009972f, -0.277884f, 0.186863f, -0.092907f, -0.173702f, -0.181685f, 0.068689f, 0.162027f, -0.198297f, -0.187268f, 0.205694f, 0.203590f, 0.214856f, 0.183006f, -0.134946f, -0.101737f, 0.297692f, 0.186094f, 0.151310f, 0.263386f, 0.047937f, -0.231495f, -0.316247f, 0.062463f, 0.126214f, -0.429594f, -0.431241f, -0.162415f, -0.447798f, -0.046150f, -0.333806f, 0.240116f, -0.591009f, -0.298962f, -0.164276f, -0.286814f, 0.304634f, -0.354010f, -0.257481f, -0.125905f, -0.478741f, -0.548286f, -0.506258f, -0.173579f, -0.252295f, 0.105498f, -0.227598f, -0.170755f, -0.133890f, -0.223746f, 0.172580f, 0.110737f, -0.227275f, -0.442579f, -0.210141f, 0.092344f, 0.033337f, -0.069427f, 0.218034f, -0.336853f, 0.100623f, -0.270648f, -0.090810f, -0.086257f, 0.061916f, 0.145653f, -0.132420f, 0.031059f, -0.150238f, -0.234406f, -0.020547f, -0.092397f, -0.114784f, -0.117575f, -0.181279f, -0.164375f, -0.086279f, 0.105592f, 0.247661f, 0.278685f, -0.172109f, 0.118119f, 0.250413f, -0.066356f, -0.216185f, 0.030479f, 0.100651f, -0.005741f, -0.264109f, -0.057368f, -0.063875f, 0.070290f, -0.080075f, 0.017529f, 0.148514f, 0.039408f, 0.168385f, 0.163722f, -0.292060f, -0.306788f, 0.208184f, -0.345679f, -0.238253f, -0.269090f, -0.111605f, 0.056355f, -0.253814f, -0.228154f, -0.417369f, -0.273027f, -0.060294f, 0.029552f, 0.131375f, -0.226900f, 0.263789f, -0.044640f, -0.172106f, -0.088009f, -0.344991f, -0.005630f, -0.313547f, 0.114060f, -0.129358f, -0.406819f, -0.064779f, -0.013797f, 0.036586f, -0.326756f, -0.039698f, 0.239363f, -0.055926f, -0.160899f, -0.082374f, 0.071836f, -0.271576f, 0.222894f, -0.335465f, -0.268013f, -0.231529f, -0.150919f, 0.292757f, -0.151852f, -0.407715f, 0.058833f };
static const float IoTmodel_layer_4_biases[1] = { 0.835951f };
static const float IoTmodel_layer_4_weights[30] = { 0.159240f, -0.135445f, -0.111311f, 0.223683f, -0.120162f, 0.271433f, -0.129813f, 0.154229f, -0.120586f, -0.109651f, 0.190154f, -0.124806f, 0.194527f, -0.141475f, -0.346308f, -0.346834f, -0.141886f, -0.110194f, -0.100010f, -0.358519f, -0.377498f, 0.186096f, -0.128177f, -0.212607f, -0.167626f, -0.149767f, 0.181980f, 0.238365f, -0.141587f, -0.116387f };
static float IoTmodel_buf1[30];
static float IoTmodel_buf2[30];
static const EmlNetLayer IoTmodel_layers[5] = { 
{ 30, 5, IoTmodel_layer_0_weights, IoTmodel_layer_0_biases, EmlNetActivationRelu }, 
{ 30, 30, IoTmodel_layer_1_weights, IoTmodel_layer_1_biases, EmlNetActivationRelu }, 
{ 30, 30, IoTmodel_layer_2_weights, IoTmodel_layer_2_biases, EmlNetActivationRelu }, 
{ 30, 30, IoTmodel_layer_3_weights, IoTmodel_layer_3_biases, EmlNetActivationRelu }, 
{ 1, 30, IoTmodel_layer_4_weights, IoTmodel_layer_4_biases, EmlNetActivationIdentity } };
static EmlNet IoTmodel = { 5, IoTmodel_layers, IoTmodel_buf1, IoTmodel_buf2, 30 };

    int32_t
    IoTmodel_predict(const float *features, int32_t n_features)
    {
        return eml_net_predict(&IoTmodel, features, n_features);
    }
    

    int32_t
    IoTmodel_regress(const float *features, int32_t n_features, float *out, int32_t out_length)
    {
        return eml_net_regress(&IoTmodel, features, n_features, out, out_length);
    }
    

    float
    IoTmodel_regress1(const float *features, int32_t n_features)
    {
        return eml_net_regress1(&IoTmodel, features, n_features);
    }
    